digraph Tree {
0 [label="X[40] <= 2.4898\ngini = 0.496515432109\nsamples = 1689", shape="box"] ;
1 [label="X[5] <= -87.7035\ngini = 0.345928571209\nsamples = 989", shape="box"] ;
0 -> 1 ;
2 [label="X[27] <= -11.0720\ngini = 0.244897959184\nsamples = 126", shape="box"] ;
1 -> 2 ;
3 [label="X[32] <= -1.1315\ngini = 0.42\nsamples = 10", shape="box"] ;
2 -> 3 ;
4 [label="gini = 0.0000\nsamples = 7\nvalue = [ 7.  0.]", shape="box"] ;
3 -> 4 ;
5 [label="gini = 0.0000\nsamples = 3\nvalue = [ 0.  3.]", shape="box"] ;
3 -> 5 ;
6 [label="X[13] <= -27.8031\ngini = 0.171670630202\nsamples = 116", shape="box"] ;
2 -> 6 ;
7 [label="X[56] <= 0.9109\ngini = 0.32\nsamples = 5", shape="box"] ;
6 -> 7 ;
8 [label="gini = 0.0000\nsamples = 4\nvalue = [ 4.  0.]", shape="box"] ;
7 -> 8 ;
9 [label="gini = 0.0000\nsamples = 1\nvalue = [ 0.  1.]", shape="box"] ;
7 -> 9 ;
10 [label="X[6] <= 31.6895\ngini = 0.11817222628\nsamples = 111", shape="box"] ;
6 -> 10 ;
11 [label="X[16] <= -37.9313\ngini = 0.0204059942608\nsamples = 97", shape="box"] ;
10 -> 11 ;
12 [label="X[61] <= 0.2717\ngini = 0.444444444444\nsamples = 3", shape="box"] ;
11 -> 12 ;
13 [label="gini = 0.0000\nsamples = 2\nvalue = [ 0.  2.]", shape="box"] ;
12 -> 13 ;
14 [label="gini = 0.0000\nsamples = 1\nvalue = [ 1.  0.]", shape="box"] ;
12 -> 14 ;
15 [label="gini = 0.0000\nsamples = 94\nvalue = [  0.  94.]", shape="box"] ;
11 -> 15 ;
16 [label="X[61] <= 0.0317\ngini = 0.489795918367\nsamples = 14", shape="box"] ;
10 -> 16 ;
17 [label="gini = 0.0000\nsamples = 8\nvalue = [ 0.  8.]", shape="box"] ;
16 -> 17 ;
18 [label="gini = 0.0000\nsamples = 6\nvalue = [ 6.  0.]", shape="box"] ;
16 -> 18 ;
19 [label="X[69] <= 0.8175\ngini = 0.225874062964\nsamples = 863", shape="box"] ;
1 -> 19 ;
20 [label="X[8] <= 3.3085\ngini = 0.144722044488\nsamples = 815", shape="box"] ;
19 -> 20 ;
21 [label="X[7] <= -41.2687\ngini = 0.0718041268582\nsamples = 724", shape="box"] ;
20 -> 21 ;
22 [label="X[19] <= -12.8562\ngini = 0.498866213152\nsamples = 21", shape="box"] ;
21 -> 22 ;
23 [label="gini = 0.0000\nsamples = 11\nvalue = [ 11.   0.]", shape="box"] ;
22 -> 23 ;
24 [label="gini = 0.0000\nsamples = 10\nvalue = [  0.  10.]", shape="box"] ;
22 -> 24 ;
25 [label="X[17] <= 18.7940\ngini = 0.0471946079493\nsamples = 703", shape="box"] ;
21 -> 25 ;
26 [label="X[42] <= 1215.9956\ngini = 0.0312421264802\nsamples = 693", shape="box"] ;
25 -> 26 ;
27 [label="gini = 0.0000\nsamples = 2\nvalue = [ 0.  2.]", shape="box"] ;
26 -> 27 ;
28 [label="X[58] <= 0.0127\ngini = 0.0257099235362\nsamples = 691", shape="box"] ;
26 -> 28 ;
29 [label="gini = 0.0000\nsamples = 2\nvalue = [ 0.  2.]", shape="box"] ;
28 -> 29 ;
30 [label="X[41] <= 4.0880\ngini = 0.0201128662941\nsamples = 689", shape="box"] ;
28 -> 30 ;
31 [label="X[19] <= 36.6301\ngini = 0.0144710112283\nsamples = 686", shape="box"] ;
30 -> 31 ;
32 [label="X[70] <= 0.0923\ngini = 0.011610634557\nsamples = 685", shape="box"] ;
31 -> 32 ;
33 [label="gini = 0.0000\nsamples = 1\nvalue = [ 0.  1.]", shape="box"] ;
32 -> 33 ;
34 [label="X[43] <= 8895.2158\ngini = 0.00873345644814\nsamples = 684", shape="box"] ;
32 -> 34 ;
35 [label="X[40] <= 2.4699\ngini = 0.00583936598719\nsamples = 683", shape="box"] ;
34 -> 35 ;
36 [label="X[32] <= 11.6015\ngini = 0.00293254499624\nsamples = 681", shape="box"] ;
35 -> 36 ;
37 [label="gini = 0.0000\nsamples = 671\nvalue = [ 671.    0.]", shape="box"] ;
36 -> 37 ;
38 [label="X[52] <= 0.0655\ngini = 0.18\nsamples = 10", shape="box"] ;
36 -> 38 ;
39 [label="gini = 0.0000\nsamples = 1\nvalue = [ 0.  1.]", shape="box"] ;
38 -> 39 ;
40 [label="gini = 0.0000\nsamples = 9\nvalue = [ 9.  0.]", shape="box"] ;
38 -> 40 ;
41 [label="X[1] <= -213.0551\ngini = 0.5\nsamples = 2", shape="box"] ;
35 -> 41 ;
42 [label="gini = 0.0000\nsamples = 1\nvalue = [ 0.  1.]", shape="box"] ;
41 -> 42 ;
43 [label="gini = 0.0000\nsamples = 1\nvalue = [ 1.  0.]", shape="box"] ;
41 -> 43 ;
44 [label="gini = 0.0000\nsamples = 1\nvalue = [ 0.  1.]", shape="box"] ;
34 -> 44 ;
45 [label="gini = 0.0000\nsamples = 1\nvalue = [ 0.  1.]", shape="box"] ;
31 -> 45 ;
46 [label="X[9] <= -16.6652\ngini = 0.444444444444\nsamples = 3", shape="box"] ;
30 -> 46 ;
47 [label="gini = 0.0000\nsamples = 2\nvalue = [ 0.  2.]", shape="box"] ;
46 -> 47 ;
48 [label="gini = 0.0000\nsamples = 1\nvalue = [ 1.  0.]", shape="box"] ;
46 -> 48 ;
49 [label="X[41] <= 0.7775\ngini = 0.48\nsamples = 10", shape="box"] ;
25 -> 49 ;
50 [label="gini = 0.0000\nsamples = 4\nvalue = [ 4.  0.]", shape="box"] ;
49 -> 50 ;
51 [label="gini = 0.0000\nsamples = 6\nvalue = [ 0.  6.]", shape="box"] ;
49 -> 51 ;
52 [label="X[40] <= 0.6836\ngini = 0.482550416616\nsamples = 91", shape="box"] ;
20 -> 52 ;
53 [label="X[20] <= 9.9276\ngini = 0.371350556606\nsamples = 69", shape="box"] ;
52 -> 53 ;
54 [label="X[30] <= 12.2673\ngini = 0.197530864198\nsamples = 54", shape="box"] ;
53 -> 54 ;
55 [label="X[33] <= 6.3364\ngini = 0.110726643599\nsamples = 51", shape="box"] ;
54 -> 55 ;
56 [label="gini = 0.0000\nsamples = 45\nvalue = [ 45.   0.]", shape="box"] ;
55 -> 56 ;
57 [label="X[45] <= 0.5819\ngini = 0.5\nsamples = 6", shape="box"] ;
55 -> 57 ;
58 [label="gini = 0.0000\nsamples = 3\nvalue = [ 0.  3.]", shape="box"] ;
57 -> 58 ;
59 [label="gini = 0.0000\nsamples = 3\nvalue = [ 3.  0.]", shape="box"] ;
57 -> 59 ;
60 [label="gini = 0.0000\nsamples = 3\nvalue = [ 0.  3.]", shape="box"] ;
54 -> 60 ;
61 [label="X[39] <= -6.4528\ngini = 0.391111111111\nsamples = 15", shape="box"] ;
53 -> 61 ;
62 [label="gini = 0.0000\nsamples = 4\nvalue = [ 4.  0.]", shape="box"] ;
61 -> 62 ;
63 [label="gini = 0.0000\nsamples = 11\nvalue = [  0.  11.]", shape="box"] ;
61 -> 63 ;
64 [label="X[5] <= -25.9032\ngini = 0.165289256198\nsamples = 22", shape="box"] ;
52 -> 64 ;
65 [label="gini = 0.0000\nsamples = 20\nvalue = [  0.  20.]", shape="box"] ;
64 -> 65 ;
66 [label="gini = 0.0000\nsamples = 2\nvalue = [ 2.  0.]", shape="box"] ;
64 -> 66 ;
67 [label="gini = 0.0000\nsamples = 48\nvalue = [  0.  48.]", shape="box"] ;
19 -> 67 ;
68 [label="X[42] <= 4329.2783\ngini = 0.0141836734694\nsamples = 700", shape="box"] ;
0 -> 68 ;
69 [label="gini = 0.0000\nsamples = 693\nvalue = [   0.  693.]", shape="box"] ;
68 -> 69 ;
70 [label="X[61] <= 0.0215\ngini = 0.408163265306\nsamples = 7", shape="box"] ;
68 -> 70 ;
71 [label="gini = 0.0000\nsamples = 2\nvalue = [ 0.  2.]", shape="box"] ;
70 -> 71 ;
72 [label="gini = 0.0000\nsamples = 5\nvalue = [ 5.  0.]", shape="box"] ;
70 -> 72 ;
}