digraph Tree {
node [shape=box] ;
0 [label="pre_attack - 0 <= 2.4898\ngini = 0.4965\nsamples = 1689\nvalue = [774, 915]"] ;
1 [label="mfcc - 5 <= -87.7035\ngini = 0.3459\nsamples = 989\nvalue = [769, 220]"] ;
0 -> 1 [labeldistance=2.5, labelangle=45, headlabel="True"] ;
2 [label="mfcc - 27 <= -11.072\ngini = 0.2449\nsamples = 126\nvalue = [18, 108]"] ;
1 -> 2 ;
3 [label="mfcc - 32 <= -1.1315\ngini = 0.42\nsamples = 10\nvalue = [7, 3]"] ;
2 -> 3 ;
4 [label="gini = 0.0\nsamples = 7\nvalue = [7, 0]"] ;
3 -> 4 ;
5 [label="gini = 0.0\nsamples = 3\nvalue = [0, 3]"] ;
3 -> 5 ;
6 [label="mfcc - 13 <= -27.8031\ngini = 0.1717\nsamples = 116\nvalue = [11, 105]"] ;
2 -> 6 ;
7 [label="mfcc - 39 <= -3.7025\ngini = 0.32\nsamples = 5\nvalue = [4, 1]"] ;
6 -> 7 ;
8 [label="gini = 0.0\nsamples = 4\nvalue = [4, 0]"] ;
7 -> 8 ;
9 [label="gini = 0.0\nsamples = 1\nvalue = [0, 1]"] ;
7 -> 9 ;
10 [label="mfcc - 6 <= 31.6895\ngini = 0.1182\nsamples = 111\nvalue = [7, 104]"] ;
6 -> 10 ;
11 [label="mfcc - 16 <= -37.9313\ngini = 0.0204\nsamples = 97\nvalue = [1, 96]"] ;
10 -> 11 ;
12 [label="chroma - 15 <= 0.2397\ngini = 0.4444\nsamples = 3\nvalue = [1, 2]"] ;
11 -> 12 ;
13 [label="gini = 0.0\nsamples = 2\nvalue = [0, 2]"] ;
12 -> 13 ;
14 [label="gini = 0.0\nsamples = 1\nvalue = [1, 0]"] ;
12 -> 14 ;
15 [label="gini = 0.0\nsamples = 94\nvalue = [0, 94]"] ;
11 -> 15 ;
16 [label="mfcc - 8 <= 1.4437\ngini = 0.4898\nsamples = 14\nvalue = [6, 8]"] ;
10 -> 16 ;
17 [label="gini = 0.0\nsamples = 6\nvalue = [6, 0]"] ;
16 -> 17 ;
18 [label="gini = 0.0\nsamples = 8\nvalue = [0, 8]"] ;
16 -> 18 ;
19 [label="chroma_avg - 1 <= 0.8175\ngini = 0.2259\nsamples = 863\nvalue = [751, 112]"] ;
1 -> 19 ;
20 [label="mfcc - 8 <= 3.3085\ngini = 0.1447\nsamples = 815\nvalue = [751, 64]"] ;
19 -> 20 ;
21 [label="mfcc - 7 <= -41.2687\ngini = 0.0718\nsamples = 724\nvalue = [697, 27]"] ;
20 -> 21 ;
22 [label="spectral_centroid - 0 <= 2072.5378\ngini = 0.4989\nsamples = 21\nvalue = [11, 10]"] ;
21 -> 22 ;
23 [label="gini = 0.0\nsamples = 11\nvalue = [11, 0]"] ;
22 -> 23 ;
24 [label="gini = 0.0\nsamples = 10\nvalue = [0, 10]"] ;
22 -> 24 ;
25 [label="mfcc - 17 <= 18.794\ngini = 0.0472\nsamples = 703\nvalue = [686, 17]"] ;
21 -> 25 ;
26 [label="chroma - 14 <= 0.0127\ngini = 0.0312\nsamples = 693\nvalue = [682, 11]"] ;
25 -> 26 ;
27 [label="gini = 0.0\nsamples = 2\nvalue = [0, 2]"] ;
26 -> 27 ;
28 [label="spectral_centroid - 0 <= 1215.9956\ngini = 0.0257\nsamples = 691\nvalue = [682, 9]"] ;
26 -> 28 ;
29 [label="gini = 0.0\nsamples = 2\nvalue = [0, 2]"] ;
28 -> 29 ;
30 [label="pre_attack - 1 <= 4.088\ngini = 0.0201\nsamples = 689\nvalue = [682, 7]"] ;
28 -> 30 ;
31 [label="chroma_std - 0 <= 0.0923\ngini = 0.0145\nsamples = 686\nvalue = [681, 5]"] ;
30 -> 31 ;
32 [label="gini = 0.0\nsamples = 1\nvalue = [0, 1]"] ;
31 -> 32 ;
33 [label="gini = 0.0116\nsamples = 685\nvalue = [681, 4]"] ;
31 -> 33 ;
34 [label="chroma - 23 <= 0.6565\ngini = 0.4444\nsamples = 3\nvalue = [1, 2]"] ;
30 -> 34 ;
35 [label="gini = 0.0\nsamples = 2\nvalue = [0, 2]"] ;
34 -> 35 ;
36 [label="gini = 0.0\nsamples = 1\nvalue = [1, 0]"] ;
34 -> 36 ;
37 [label="pre_attack - 0 <= 0.7955\ngini = 0.48\nsamples = 10\nvalue = [4, 6]"] ;
25 -> 37 ;
38 [label="gini = 0.0\nsamples = 4\nvalue = [4, 0]"] ;
37 -> 38 ;
39 [label="gini = 0.0\nsamples = 6\nvalue = [0, 6]"] ;
37 -> 39 ;
40 [label="pre_attack - 0 <= 0.6836\ngini = 0.4826\nsamples = 91\nvalue = [54, 37]"] ;
20 -> 40 ;
41 [label="mfcc - 20 <= 9.9276\ngini = 0.3714\nsamples = 69\nvalue = [52, 17]"] ;
40 -> 41 ;
42 [label="mfcc - 30 <= 12.2673\ngini = 0.1975\nsamples = 54\nvalue = [48, 6]"] ;
41 -> 42 ;
43 [label="mfcc - 33 <= 6.3364\ngini = 0.1107\nsamples = 51\nvalue = [48, 3]"] ;
42 -> 43 ;
44 [label="gini = 0.0\nsamples = 45\nvalue = [45, 0]"] ;
43 -> 44 ;
45 [label="chroma_avg - 1 <= 0.6113\ngini = 0.5\nsamples = 6\nvalue = [3, 3]"] ;
43 -> 45 ;
46 [label="gini = 0.0\nsamples = 3\nvalue = [0, 3]"] ;
45 -> 46 ;
47 [label="gini = 0.0\nsamples = 3\nvalue = [3, 0]"] ;
45 -> 47 ;
48 [label="gini = 0.0\nsamples = 3\nvalue = [0, 3]"] ;
42 -> 48 ;
49 [label="mfcc - 39 <= -6.4528\ngini = 0.3911\nsamples = 15\nvalue = [4, 11]"] ;
41 -> 49 ;
50 [label="gini = 0.0\nsamples = 4\nvalue = [4, 0]"] ;
49 -> 50 ;
51 [label="gini = 0.0\nsamples = 11\nvalue = [0, 11]"] ;
49 -> 51 ;
52 [label="mfcc - 5 <= -25.9032\ngini = 0.1653\nsamples = 22\nvalue = [2, 20]"] ;
40 -> 52 ;
53 [label="gini = 0.0\nsamples = 20\nvalue = [0, 20]"] ;
52 -> 53 ;
54 [label="gini = 0.0\nsamples = 2\nvalue = [2, 0]"] ;
52 -> 54 ;
55 [label="gini = 0.0\nsamples = 48\nvalue = [0, 48]"] ;
19 -> 55 ;
56 [label="spectral_centroid - 0 <= 4329.2783\ngini = 0.0142\nsamples = 700\nvalue = [5, 695]"] ;
0 -> 56 [labeldistance=2.5, labelangle=-45, headlabel="False"] ;
57 [label="gini = 0.0\nsamples = 693\nvalue = [0, 693]"] ;
56 -> 57 ;
58 [label="mfcc - 27 <= 10.533\ngini = 0.4082\nsamples = 7\nvalue = [5, 2]"] ;
56 -> 58 ;
59 [label="gini = 0.0\nsamples = 5\nvalue = [5, 0]"] ;
58 -> 59 ;
60 [label="gini = 0.0\nsamples = 2\nvalue = [0, 2]"] ;
58 -> 60 ;
}