digraph Tree {
node [shape=box] ;
0 [label="mfcc - 5 <= -38.9773\ngini = 0.5\nsamples = 23618\nvalue = [11808, 11810]"] ;
1 [label="mfcc - 6 <= 6.8779\ngini = 0.4123\nsamples = 14779\nvalue = [4294, 10485]"] ;
0 -> 1 [labeldistance=2.5, labelangle=45, headlabel="True"] ;
2 [label="pre_attack - 1 <= 0.8056\ngini = 0.1921\nsamples = 9655\nvalue = [1039, 8616]"] ;
1 -> 2 ;
3 [label="mfcc - 6 <= -7.9656\ngini = 0.4441\nsamples = 1812\nvalue = [603, 1209]"] ;
2 -> 3 ;
4 [label="chroma_avg - 0 <= 0.4168\ngini = 0.2587\nsamples = 1120\nvalue = [171, 949]"] ;
3 -> 4 ;
5 [label="mfcc - 5 <= -63.2146\ngini = 0.1779\nsamples = 922\nvalue = [91, 831]"] ;
4 -> 5 ;
6 [label="mfcc - 7 <= 19.4544\ngini = 0.081\nsamples = 662\nvalue = [28, 634]"] ;
5 -> 6 ;
7 [label="chroma - 17 <= 0.0015\ngini = 0.0681\nsamples = 652\nvalue = [23, 629]"] ;
6 -> 7 ;
8 [label="mfcc - 0 <= -370.2213\ngini = 0.375\nsamples = 4\nvalue = [3, 1]"] ;
7 -> 8 ;
9 [label="gini = 0.0\nsamples = 3\nvalue = [3, 0]"] ;
8 -> 9 ;
10 [label="gini = 0.0\nsamples = 1\nvalue = [0, 1]"] ;
8 -> 10 ;
11 [label="mfcc - 22 <= -32.6912\ngini = 0.0598\nsamples = 648\nvalue = [20, 628]"] ;
7 -> 11 ;
12 [label="gini = 0.0\nsamples = 2\nvalue = [2, 0]"] ;
11 -> 12 ;
13 [label="mfcc - 18 <= 16.2407\ngini = 0.0542\nsamples = 646\nvalue = [18, 628]"] ;
11 -> 13 ;
14 [label="mfcc - 25 <= -41.3531\ngini = 0.0329\nsamples = 597\nvalue = [10, 587]"] ;
13 -> 14 ;
15 [label="gini = 0.0\nsamples = 1\nvalue = [1, 0]"] ;
14 -> 15 ;
16 [label="mfcc - 6 <= -8.6484\ngini = 0.0297\nsamples = 596\nvalue = [9, 587]"] ;
14 -> 16 ;
17 [label="mfcc - 33 <= -13.2689\ngini = 0.0236\nsamples = 586\nvalue = [7, 579]"] ;
16 -> 17 ;
18 [label="chroma - 5 <= 0.4505\ngini = 0.1841\nsamples = 39\nvalue = [4, 35]"] ;
17 -> 18 ;
19 [label="gini = 0.0\nsamples = 33\nvalue = [0, 33]"] ;
18 -> 19 ;
20 [label="mfcc - 29 <= 9.7834\ngini = 0.4444\nsamples = 6\nvalue = [4, 2]"] ;
18 -> 20 ;
21 [label="gini = 0.0\nsamples = 4\nvalue = [4, 0]"] ;
20 -> 21 ;
22 [label="gini = 0.0\nsamples = 2\nvalue = [0, 2]"] ;
20 -> 22 ;
23 [label="mfcc - 36 <= -26.1203\ngini = 0.0109\nsamples = 547\nvalue = [3, 544]"] ;
17 -> 23 ;
24 [label="mfcc - 23 <= 6.6015\ngini = 0.4444\nsamples = 3\nvalue = [1, 2]"] ;
23 -> 24 ;
25 [label="gini = 0.0\nsamples = 2\nvalue = [0, 2]"] ;
24 -> 25 ;
26 [label="gini = 0.0\nsamples = 1\nvalue = [1, 0]"] ;
24 -> 26 ;
27 [label="mfcc - 10 <= -30.9903\ngini = 0.0073\nsamples = 544\nvalue = [2, 542]"] ;
23 -> 27 ;
28 [label="gini = 0.1327\nsamples = 28\nvalue = [2, 26]"] ;
27 -> 28 ;
29 [label="gini = 0.0\nsamples = 516\nvalue = [0, 516]"] ;
27 -> 29 ;
30 [label="chroma - 7 <= 0.3657\ngini = 0.32\nsamples = 10\nvalue = [2, 8]"] ;
16 -> 30 ;
31 [label="gini = 0.0\nsamples = 8\nvalue = [0, 8]"] ;
30 -> 31 ;
32 [label="gini = 0.0\nsamples = 2\nvalue = [2, 0]"] ;
30 -> 32 ;
33 [label="mfcc - 30 <= -7.586\ngini = 0.2732\nsamples = 49\nvalue = [8, 41]"] ;
13 -> 33 ;
34 [label="chroma - 10 <= 0.2158\ngini = 0.2449\nsamples = 7\nvalue = [6, 1]"] ;
33 -> 34 ;
35 [label="gini = 0.0\nsamples = 6\nvalue = [6, 0]"] ;
34 -> 35 ;
36 [label="gini = 0.0\nsamples = 1\nvalue = [0, 1]"] ;
34 -> 36 ;
37 [label="chroma - 2 <= 0.0325\ngini = 0.0907\nsamples = 42\nvalue = [2, 40]"] ;
33 -> 37 ;
38 [label="gini = 0.0\nsamples = 1\nvalue = [1, 0]"] ;
37 -> 38 ;
39 [label="mfcc - 4 <= -52.3113\ngini = 0.0476\nsamples = 41\nvalue = [1, 40]"] ;
37 -> 39 ;
40 [label="gini = 0.0\nsamples = 40\nvalue = [0, 40]"] ;
39 -> 40 ;
41 [label="gini = 0.0\nsamples = 1\nvalue = [1, 0]"] ;
39 -> 41 ;
42 [label="mfcc - 39 <= 5.3876\ngini = 0.5\nsamples = 10\nvalue = [5, 5]"] ;
6 -> 42 ;
43 [label="gini = 0.0\nsamples = 5\nvalue = [5, 0]"] ;
42 -> 43 ;
44 [label="gini = 0.0\nsamples = 5\nvalue = [0, 5]"] ;
42 -> 44 ;
45 [label="mfcc - 8 <= -17.4767\ngini = 0.3672\nsamples = 260\nvalue = [63, 197]"] ;
5 -> 45 ;
46 [label="mfcc - 9 <= -4.1469\ngini = 0.1593\nsamples = 149\nvalue = [13, 136]"] ;
45 -> 46 ;
47 [label="mfcc - 2 <= 41.2502\ngini = 0.1085\nsamples = 139\nvalue = [8, 131]"] ;
46 -> 47 ;
48 [label="gini = 0.0\nsamples = 1\nvalue = [1, 0]"] ;
47 -> 48 ;
49 [label="mfcc - 29 <= -26.7266\ngini = 0.0963\nsamples = 138\nvalue = [7, 131]"] ;
47 -> 49 ;
50 [label="gini = 0.0\nsamples = 1\nvalue = [1, 0]"] ;
49 -> 50 ;
51 [label="mfcc - 5 <= -39.3465\ngini = 0.0838\nsamples = 137\nvalue = [6, 131]"] ;
49 -> 51 ;
52 [label="chroma - 17 <= 0.0045\ngini = 0.0708\nsamples = 136\nvalue = [5, 131]"] ;
51 -> 52 ;
53 [label="gini = 0.0\nsamples = 1\nvalue = [1, 0]"] ;
52 -> 53 ;
54 [label="mfcc - 7 <= 4.6864\ngini = 0.0575\nsamples = 135\nvalue = [4, 131]"] ;
52 -> 54 ;
55 [label="mfcc - 29 <= -18.3923\ngini = 0.0159\nsamples = 125\nvalue = [1, 124]"] ;
54 -> 55 ;
56 [label="mfcc - 29 <= -20.121\ngini = 0.32\nsamples = 5\nvalue = [1, 4]"] ;
55 -> 56 ;
57 [label="gini = 0.0\nsamples = 4\nvalue = [0, 4]"] ;
56 -> 57 ;
58 [label="gini = 0.0\nsamples = 1\nvalue = [1, 0]"] ;
56 -> 58 ;
59 [label="gini = 0.0\nsamples = 120\nvalue = [0, 120]"] ;
55 -> 59 ;
60 [label="mfcc - 14 <= 5.3989\ngini = 0.42\nsamples = 10\nvalue = [3, 7]"] ;
54 -> 60 ;
61 [label="gini = 0.0\nsamples = 3\nvalue = [3, 0]"] ;
60 -> 61 ;
62 [label="gini = 0.0\nsamples = 7\nvalue = [0, 7]"] ;
60 -> 62 ;
63 [label="gini = 0.0\nsamples = 1\nvalue = [1, 0]"] ;
51 -> 63 ;
64 [label="mfcc - 23 <= -2.5005\ngini = 0.5\nsamples = 10\nvalue = [5, 5]"] ;
46 -> 64 ;
65 [label="pre_attack - 0 <= 0.0648\ngini = 0.2778\nsamples = 6\nvalue = [5, 1]"] ;
64 -> 65 ;
66 [label="gini = 0.0\nsamples = 1\nvalue = [0, 1]"] ;
65 -> 66 ;
67 [label="gini = 0.0\nsamples = 5\nvalue = [5, 0]"] ;
65 -> 67 ;
68 [label="gini = 0.0\nsamples = 4\nvalue = [0, 4]"] ;
64 -> 68 ;
69 [label="mfcc - 0 <= -434.4498\ngini = 0.4951\nsamples = 111\nvalue = [50, 61]"] ;
45 -> 69 ;
70 [label="chroma - 20 <= 0.0364\ngini = 0.2486\nsamples = 55\nvalue = [8, 47]"] ;
69 -> 70 ;
71 [label="mfcc - 35 <= 0.7629\ngini = 0.48\nsamples = 10\nvalue = [6, 4]"] ;
70 -> 71 ;
72 [label="gini = 0.0\nsamples = 4\nvalue = [0, 4]"] ;
71 -> 72 ;
73 [label="gini = 0.0\nsamples = 6\nvalue = [6, 0]"] ;
71 -> 73 ;
74 [label="chroma_std - 0 <= 0.228\ngini = 0.0849\nsamples = 45\nvalue = [2, 43]"] ;
70 -> 74 ;
75 [label="chroma - 16 <= 0.7541\ngini = 0.4444\nsamples = 3\nvalue = [2, 1]"] ;
74 -> 75 ;
76 [label="gini = 0.0\nsamples = 1\nvalue = [0, 1]"] ;
75 -> 76 ;
77 [label="gini = 0.0\nsamples = 2\nvalue = [2, 0]"] ;
75 -> 77 ;
78 [label="gini = 0.0\nsamples = 42\nvalue = [0, 42]"] ;
74 -> 78 ;
79 [label="mfcc - 20 <= 5.1628\ngini = 0.375\nsamples = 56\nvalue = [42, 14]"] ;
69 -> 79 ;
80 [label="mfcc - 17 <= 20.527\ngini = 0.095\nsamples = 40\nvalue = [38, 2]"] ;
79 -> 80 ;
81 [label="gini = 0.0\nsamples = 38\nvalue = [38, 0]"] ;
80 -> 81 ;
82 [label="gini = 0.0\nsamples = 2\nvalue = [0, 2]"] ;
80 -> 82 ;
83 [label="spectral_centroid - 0 <= 2245.7546\ngini = 0.375\nsamples = 16\nvalue = [4, 12]"] ;
79 -> 83 ;
84 [label="gini = 0.0\nsamples = 12\nvalue = [0, 12]"] ;
83 -> 84 ;
85 [label="gini = 0.0\nsamples = 4\nvalue = [4, 0]"] ;
83 -> 85 ;
86 [label="mfcc - 6 <= -18.2495\ngini = 0.4816\nsamples = 198\nvalue = [80, 118]"] ;
4 -> 86 ;
87 [label="mfcc - 32 <= -15.517\ngini = 0.2149\nsamples = 98\nvalue = [12, 86]"] ;
86 -> 87 ;
88 [label="gini = 0.0\nsamples = 4\nvalue = [4, 0]"] ;
87 -> 88 ;
89 [label="chroma - 23 <= 0.0616\ngini = 0.1557\nsamples = 94\nvalue = [8, 86]"] ;
87 -> 89 ;
90 [label="mfcc - 1 <= -415.8621\ngini = 0.5\nsamples = 8\nvalue = [4, 4]"] ;
89 -> 90 ;
91 [label="gini = 0.0\nsamples = 4\nvalue = [0, 4]"] ;
90 -> 91 ;
92 [label="gini = 0.0\nsamples = 4\nvalue = [4, 0]"] ;
90 -> 92 ;
93 [label="mfcc - 1 <= -279.5371\ngini = 0.0887\nsamples = 86\nvalue = [4, 82]"] ;
89 -> 93 ;
94 [label="mfcc - 30 <= 25.2922\ngini = 0.0681\nsamples = 85\nvalue = [3, 82]"] ;
93 -> 94 ;
95 [label="mfcc - 24 <= -15.3419\ngini = 0.0465\nsamples = 84\nvalue = [2, 82]"] ;
94 -> 95 ;
96 [label="chroma_avg - 0 <= 0.4587\ngini = 0.4444\nsamples = 3\nvalue = [1, 2]"] ;
95 -> 96 ;
97 [label="gini = 0.0\nsamples = 1\nvalue = [1, 0]"] ;
96 -> 97 ;
98 [label="gini = 0.0\nsamples = 2\nvalue = [0, 2]"] ;
96 -> 98 ;
99 [label="mfcc - 16 <= -12.4679\ngini = 0.0244\nsamples = 81\nvalue = [1, 80]"] ;
95 -> 99 ;
100 [label="mfcc - 29 <= 2.6117\ngini = 0.32\nsamples = 5\nvalue = [1, 4]"] ;
99 -> 100 ;
101 [label="gini = 0.0\nsamples = 4\nvalue = [0, 4]"] ;
100 -> 101 ;
102 [label="gini = 0.0\nsamples = 1\nvalue = [1, 0]"] ;
100 -> 102 ;
103 [label="gini = 0.0\nsamples = 76\nvalue = [0, 76]"] ;
99 -> 103 ;
104 [label="gini = 0.0\nsamples = 1\nvalue = [1, 0]"] ;
94 -> 104 ;
105 [label="gini = 0.0\nsamples = 1\nvalue = [1, 0]"] ;
93 -> 105 ;
106 [label="mfcc - 25 <= 7.0737\ngini = 0.4352\nsamples = 100\nvalue = [68, 32]"] ;
86 -> 106 ;
107 [label="mfcc - 22 <= 18.6914\ngini = 0.3367\nsamples = 84\nvalue = [66, 18]"] ;
106 -> 107 ;
108 [label="chroma - 15 <= 0.1712\ngini = 0.2449\nsamples = 77\nvalue = [66, 11]"] ;
107 -> 108 ;
109 [label="mfcc - 18 <= 1.9919\ngini = 0.497\nsamples = 13\nvalue = [6, 7]"] ;
108 -> 109 ;
110 [label="chroma - 23 <= 0.7614\ngini = 0.2449\nsamples = 7\nvalue = [6, 1]"] ;
109 -> 110 ;
111 [label="gini = 0.0\nsamples = 6\nvalue = [6, 0]"] ;
110 -> 111 ;
112 [label="gini = 0.0\nsamples = 1\nvalue = [0, 1]"] ;
110 -> 112 ;
113 [label="gini = 0.0\nsamples = 6\nvalue = [0, 6]"] ;
109 -> 113 ;
114 [label="pre_attack - 0 <= 0.9719\ngini = 0.1172\nsamples = 64\nvalue = [60, 4]"] ;
108 -> 114 ;
115 [label="chroma - 4 <= 0.1769\ngini = 0.0634\nsamples = 61\nvalue = [59, 2]"] ;
114 -> 115 ;
116 [label="spectral_centroid - 0 <= 2538.3728\ngini = 0.4444\nsamples = 3\nvalue = [1, 2]"] ;
115 -> 116 ;
117 [label="gini = 0.0\nsamples = 2\nvalue = [0, 2]"] ;
116 -> 117 ;
118 [label="gini = 0.0\nsamples = 1\nvalue = [1, 0]"] ;
116 -> 118 ;
119 [label="gini = 0.0\nsamples = 58\nvalue = [58, 0]"] ;
115 -> 119 ;
120 [label="chroma - 1 <= 0.8159\ngini = 0.4444\nsamples = 3\nvalue = [1, 2]"] ;
114 -> 120 ;
121 [label="gini = 0.0\nsamples = 1\nvalue = [1, 0]"] ;
120 -> 121 ;
122 [label="gini = 0.0\nsamples = 2\nvalue = [0, 2]"] ;
120 -> 122 ;
123 [label="gini = 0.0\nsamples = 7\nvalue = [0, 7]"] ;
107 -> 123 ;
124 [label="mfcc - 39 <= 10.4145\ngini = 0.2188\nsamples = 16\nvalue = [2, 14]"] ;
106 -> 124 ;
125 [label="gini = 0.0\nsamples = 14\nvalue = [0, 14]"] ;
124 -> 125 ;
126 [label="gini = 0.0\nsamples = 2\nvalue = [2, 0]"] ;
124 -> 126 ;
127 [label="chroma - 9 <= 0.0358\ngini = 0.4691\nsamples = 692\nvalue = [432, 260]"] ;
3 -> 127 ;
128 [label="mfcc - 11 <= -13.5614\ngini = 0.168\nsamples = 108\nvalue = [10, 98]"] ;
127 -> 128 ;
129 [label="mfcc - 5 <= -85.7625\ngini = 0.4592\nsamples = 14\nvalue = [9, 5]"] ;
128 -> 129 ;
130 [label="mfcc - 14 <= -4.023\ngini = 0.4082\nsamples = 7\nvalue = [2, 5]"] ;
129 -> 130 ;
131 [label="gini = 0.0\nsamples = 2\nvalue = [2, 0]"] ;
130 -> 131 ;
132 [label="gini = 0.0\nsamples = 5\nvalue = [0, 5]"] ;
130 -> 132 ;
133 [label="gini = 0.0\nsamples = 7\nvalue = [7, 0]"] ;
129 -> 133 ;
134 [label="mfcc - 1 <= -306.0569\ngini = 0.0211\nsamples = 94\nvalue = [1, 93]"] ;
128 -> 134 ;
135 [label="gini = 0.0\nsamples = 93\nvalue = [0, 93]"] ;
134 -> 135 ;
136 [label="gini = 0.0\nsamples = 1\nvalue = [1, 0]"] ;
134 -> 136 ;
137 [label="mfcc - 20 <= 7.3595\ngini = 0.4009\nsamples = 584\nvalue = [422, 162]"] ;
127 -> 137 ;
138 [label="mfcc - 8 <= -24.2736\ngini = 0.3154\nsamples = 469\nvalue = [377, 92]"] ;
137 -> 138 ;
139 [label="mfcc - 18 <= -8.4089\ngini = 0.4919\nsamples = 55\nvalue = [24, 31]"] ;
138 -> 139 ;
140 [label="chroma - 19 <= 0.9997\ngini = 0.1653\nsamples = 22\nvalue = [2, 20]"] ;
139 -> 140 ;
141 [label="mfcc - 39 <= -10.2817\ngini = 0.0907\nsamples = 21\nvalue = [1, 20]"] ;
140 -> 141 ;
142 [label="gini = 0.0\nsamples = 1\nvalue = [1, 0]"] ;
141 -> 142 ;
143 [label="gini = 0.0\nsamples = 20\nvalue = [0, 20]"] ;
141 -> 143 ;
144 [label="gini = 0.0\nsamples = 1\nvalue = [1, 0]"] ;
140 -> 144 ;
145 [label="chroma - 17 <= 0.1358\ngini = 0.4444\nsamples = 33\nvalue = [22, 11]"] ;
139 -> 145 ;
146 [label="chroma_std - 0 <= 0.321\ngini = 0.32\nsamples = 10\nvalue = [2, 8]"] ;
145 -> 146 ;
147 [label="gini = 0.0\nsamples = 8\nvalue = [0, 8]"] ;
146 -> 147 ;
148 [label="gini = 0.0\nsamples = 2\nvalue = [2, 0]"] ;
146 -> 148 ;
149 [label="chroma - 4 <= 0.1451\ngini = 0.2268\nsamples = 23\nvalue = [20, 3]"] ;
145 -> 149 ;
150 [label="chroma - 0 <= 0.113\ngini = 0.375\nsamples = 4\nvalue = [1, 3]"] ;
149 -> 150 ;
151 [label="gini = 0.0\nsamples = 1\nvalue = [1, 0]"] ;
150 -> 151 ;
152 [label="gini = 0.0\nsamples = 3\nvalue = [0, 3]"] ;
150 -> 152 ;
153 [label="gini = 0.0\nsamples = 19\nvalue = [19, 0]"] ;
149 -> 153 ;
154 [label="mfcc - 23 <= 23.2584\ngini = 0.2513\nsamples = 414\nvalue = [353, 61]"] ;
138 -> 154 ;
155 [label="mfcc - 15 <= 30.4951\ngini = 0.2238\nsamples = 405\nvalue = [353, 52]"] ;
154 -> 155 ;
156 [label="mfcc - 0 <= -518.4019\ngini = 0.1838\nsamples = 381\nvalue = [342, 39]"] ;
155 -> 156 ;
157 [label="chroma - 6 <= 0.8321\ngini = 0.4628\nsamples = 11\nvalue = [4, 7]"] ;
156 -> 157 ;
158 [label="gini = 0.0\nsamples = 7\nvalue = [0, 7]"] ;
157 -> 158 ;
159 [label="gini = 0.0\nsamples = 4\nvalue = [4, 0]"] ;
157 -> 159 ;
160 [label="mfcc - 30 <= 10.3377\ngini = 0.158\nsamples = 370\nvalue = [338, 32]"] ;
156 -> 160 ;
161 [label="mfcc - 16 <= 27.9711\ngini = 0.115\nsamples = 343\nvalue = [322, 21]"] ;
160 -> 161 ;
162 [label="mfcc - 21 <= 22.1969\ngini = 0.0953\nsamples = 339\nvalue = [322, 17]"] ;
161 -> 162 ;
163 [label="mfcc - 8 <= 53.5894\ngini = 0.0851\nsamples = 337\nvalue = [322, 15]"] ;
162 -> 163 ;
164 [label="chroma - 11 <= 0.0219\ngini = 0.0746\nsamples = 335\nvalue = [322, 13]"] ;
163 -> 164 ;
165 [label="gini = 0.48\nsamples = 10\nvalue = [6, 4]"] ;
164 -> 165 ;
166 [label="gini = 0.0539\nsamples = 325\nvalue = [316, 9]"] ;
164 -> 166 ;
167 [label="gini = 0.0\nsamples = 2\nvalue = [0, 2]"] ;
163 -> 167 ;
168 [label="gini = 0.0\nsamples = 2\nvalue = [0, 2]"] ;
162 -> 168 ;
169 [label="gini = 0.0\nsamples = 4\nvalue = [0, 4]"] ;
161 -> 169 ;
170 [label="chroma - 3 <= 0.4872\ngini = 0.4829\nsamples = 27\nvalue = [16, 11]"] ;
160 -> 170 ;
171 [label="mfcc - 9 <= -12.7249\ngini = 0.2778\nsamples = 18\nvalue = [15, 3]"] ;
170 -> 171 ;
172 [label="mfcc - 12 <= -2.3731\ngini = 0.375\nsamples = 4\nvalue = [1, 3]"] ;
171 -> 172 ;
173 [label="gini = 0.0\nsamples = 3\nvalue = [0, 3]"] ;
172 -> 173 ;
174 [label="gini = 0.0\nsamples = 1\nvalue = [1, 0]"] ;
172 -> 174 ;
175 [label="gini = 0.0\nsamples = 14\nvalue = [14, 0]"] ;
171 -> 175 ;
176 [label="chroma - 6 <= 0.1254\ngini = 0.1975\nsamples = 9\nvalue = [1, 8]"] ;
170 -> 176 ;
177 [label="gini = 0.0\nsamples = 1\nvalue = [1, 0]"] ;
176 -> 177 ;
178 [label="gini = 0.0\nsamples = 8\nvalue = [0, 8]"] ;
176 -> 178 ;
179 [label="chroma - 17 <= 0.1184\ngini = 0.4965\nsamples = 24\nvalue = [11, 13]"] ;
155 -> 179 ;
180 [label="gini = 0.0\nsamples = 11\nvalue = [0, 11]"] ;
179 -> 180 ;
181 [label="chroma - 20 <= 0.0948\ngini = 0.2604\nsamples = 13\nvalue = [11, 2]"] ;
179 -> 181 ;
182 [label="gini = 0.0\nsamples = 2\nvalue = [0, 2]"] ;
181 -> 182 ;
183 [label="gini = 0.0\nsamples = 11\nvalue = [11, 0]"] ;
181 -> 183 ;
184 [label="gini = 0.0\nsamples = 9\nvalue = [0, 9]"] ;
154 -> 184 ;
185 [label="spectral_centroid - 0 <= 1933.9063\ngini = 0.4764\nsamples = 115\nvalue = [45, 70]"] ;
137 -> 185 ;
186 [label="mfcc - 26 <= 1.6024\ngini = 0.2008\nsamples = 53\nvalue = [6, 47]"] ;
185 -> 186 ;
187 [label="mfcc - 38 <= -3.6076\ngini = 0.2449\nsamples = 7\nvalue = [6, 1]"] ;
186 -> 187 ;
188 [label="gini = 0.0\nsamples = 1\nvalue = [0, 1]"] ;
187 -> 188 ;
189 [label="gini = 0.0\nsamples = 6\nvalue = [6, 0]"] ;
187 -> 189 ;
190 [label="gini = 0.0\nsamples = 46\nvalue = [0, 46]"] ;
186 -> 190 ;
191 [label="mfcc - 32 <= 8.3366\ngini = 0.4667\nsamples = 62\nvalue = [39, 23]"] ;
185 -> 191 ;
192 [label="mfcc - 24 <= 11.4547\ngini = 0.3799\nsamples = 51\nvalue = [38, 13]"] ;
191 -> 192 ;
193 [label="chroma - 3 <= 0.6379\ngini = 0.2627\nsamples = 45\nvalue = [38, 7]"] ;
192 -> 193 ;
194 [label="mfcc - 22 <= 14.8861\ngini = 0.1023\nsamples = 37\nvalue = [35, 2]"] ;
193 -> 194 ;
195 [label="gini = 0.0\nsamples = 34\nvalue = [34, 0]"] ;
194 -> 195 ;
196 [label="chroma - 13 <= 0.3057\ngini = 0.4444\nsamples = 3\nvalue = [1, 2]"] ;
194 -> 196 ;
197 [label="gini = 0.0\nsamples = 2\nvalue = [0, 2]"] ;
196 -> 197 ;
198 [label="gini = 0.0\nsamples = 1\nvalue = [1, 0]"] ;
196 -> 198 ;
199 [label="mfcc - 4 <= -92.7211\ngini = 0.4688\nsamples = 8\nvalue = [3, 5]"] ;
193 -> 199 ;
200 [label="gini = 0.0\nsamples = 3\nvalue = [3, 0]"] ;
199 -> 200 ;
201 [label="gini = 0.0\nsamples = 5\nvalue = [0, 5]"] ;
199 -> 201 ;
202 [label="gini = 0.0\nsamples = 6\nvalue = [0, 6]"] ;
192 -> 202 ;
203 [label="chroma - 5 <= 0.5368\ngini = 0.1653\nsamples = 11\nvalue = [1, 10]"] ;
191 -> 203 ;
204 [label="gini = 0.0\nsamples = 10\nvalue = [0, 10]"] ;
203 -> 204 ;
205 [label="gini = 0.0\nsamples = 1\nvalue = [1, 0]"] ;
203 -> 205 ;
206 [label="mfcc - 10 <= 40.7588\ngini = 0.105\nsamples = 7843\nvalue = [436, 7407]"] ;
2 -> 206 ;
207 [label="mfcc - 11 <= 42.9554\ngini = 0.0726\nsamples = 7635\nvalue = [288, 7347]"] ;
206 -> 207 ;
208 [label="spectral_centroid - 1 <= 5520.9219\ngini = 0.0659\nsamples = 7567\nvalue = [258, 7309]"] ;
207 -> 208 ;
209 [label="mfcc - 15 <= -0.5513\ngini = 0.0635\nsamples = 7557\nvalue = [248, 7309]"] ;
208 -> 209 ;
210 [label="mfcc - 33 <= 18.9339\ngini = 0.1712\nsamples = 1745\nvalue = [165, 1580]"] ;
209 -> 210 ;
211 [label="mfcc - 31 <= -28.0653\ngini = 0.149\nsamples = 1702\nvalue = [138, 1564]"] ;
210 -> 211 ;
212 [label="mfcc - 38 <= -0.2431\ngini = 0.2778\nsamples = 12\nvalue = [10, 2]"] ;
211 -> 212 ;
213 [label="gini = 0.0\nsamples = 2\nvalue = [0, 2]"] ;
212 -> 213 ;
214 [label="gini = 0.0\nsamples = 10\nvalue = [10, 0]"] ;
212 -> 214 ;
215 [label="chroma - 6 <= 0.7288\ngini = 0.14\nsamples = 1690\nvalue = [128, 1562]"] ;
211 -> 215 ;
216 [label="spectral_centroid - 0 <= 3541.3208\ngini = 0.1163\nsamples = 1581\nvalue = [98, 1483]"] ;
215 -> 216 ;
217 [label="mfcc - 35 <= 28.5277\ngini = 0.0942\nsamples = 1493\nvalue = [74, 1419]"] ;
216 -> 217 ;
218 [label="mfcc - 32 <= 12.6681\ngini = 0.0908\nsamples = 1490\nvalue = [71, 1419]"] ;
217 -> 218 ;
219 [label="pre_attack - 0 <= 0.2179\ngini = 0.0735\nsamples = 1414\nvalue = [54, 1360]"] ;
218 -> 219 ;
220 [label="mfcc - 17 <= -8.1944\ngini = 0.375\nsamples = 4\nvalue = [3, 1]"] ;
219 -> 220 ;
221 [label="gini = 0.0\nsamples = 1\nvalue = [0, 1]"] ;
220 -> 221 ;
222 [label="gini = 0.0\nsamples = 3\nvalue = [3, 0]"] ;
220 -> 222 ;
223 [label="mfcc - 27 <= 34.4128\ngini = 0.0697\nsamples = 1410\nvalue = [51, 1359]"] ;
219 -> 223 ;
224 [label="gini = 0.0659\nsamples = 1406\nvalue = [48, 1358]"] ;
223 -> 224 ;
225 [label="gini = 0.375\nsamples = 4\nvalue = [3, 1]"] ;
223 -> 225 ;
226 [label="spectral_centroid - 0 <= 2865.5491\ngini = 0.3473\nsamples = 76\nvalue = [17, 59]"] ;
218 -> 226 ;
227 [label="mfcc - 14 <= -23.0136\ngini = 0.1723\nsamples = 63\nvalue = [6, 57]"] ;
226 -> 227 ;
228 [label="gini = 0.0\nsamples = 3\nvalue = [3, 0]"] ;
227 -> 228 ;
229 [label="gini = 0.095\nsamples = 60\nvalue = [3, 57]"] ;
227 -> 229 ;
230 [label="mfcc - 4 <= -91.8272\ngini = 0.2604\nsamples = 13\nvalue = [11, 2]"] ;
226 -> 230 ;
231 [label="gini = 0.0\nsamples = 2\nvalue = [0, 2]"] ;
230 -> 231 ;
232 [label="gini = 0.0\nsamples = 11\nvalue = [11, 0]"] ;
230 -> 232 ;
233 [label="gini = 0.0\nsamples = 3\nvalue = [3, 0]"] ;
217 -> 233 ;
234 [label="mfcc - 17 <= 11.3215\ngini = 0.3967\nsamples = 88\nvalue = [24, 64]"] ;
216 -> 234 ;
235 [label="chroma_std - 1 <= 0.2301\ngini = 0.323\nsamples = 79\nvalue = [16, 63]"] ;
234 -> 235 ;
236 [label="gini = 0.0\nsamples = 5\nvalue = [5, 0]"] ;
235 -> 236 ;
237 [label="mfcc - 23 <= 29.907\ngini = 0.2531\nsamples = 74\nvalue = [11, 63]"] ;
235 -> 237 ;
238 [label="mfcc - 16 <= 3.8244\ngini = 0.18\nsamples = 70\nvalue = [7, 63]"] ;
237 -> 238 ;
239 [label="gini = 0.0357\nsamples = 55\nvalue = [1, 54]"] ;
238 -> 239 ;
240 [label="gini = 0.48\nsamples = 15\nvalue = [6, 9]"] ;
238 -> 240 ;
241 [label="gini = 0.0\nsamples = 4\nvalue = [4, 0]"] ;
237 -> 241 ;
242 [label="mfcc - 24 <= 14.3702\ngini = 0.1975\nsamples = 9\nvalue = [8, 1]"] ;
234 -> 242 ;
243 [label="gini = 0.0\nsamples = 8\nvalue = [8, 0]"] ;
242 -> 243 ;
244 [label="gini = 0.0\nsamples = 1\nvalue = [0, 1]"] ;
242 -> 244 ;
245 [label="mfcc - 0 <= -293.5064\ngini = 0.399\nsamples = 109\nvalue = [30, 79]"] ;
215 -> 245 ;
246 [label="chroma - 16 <= 0.0519\ngini = 0.4362\nsamples = 28\nvalue = [19, 9]"] ;
245 -> 246 ;
247 [label="mfcc - 34 <= 12.6598\ngini = 0.1049\nsamples = 18\nvalue = [17, 1]"] ;
246 -> 247 ;
248 [label="gini = 0.0\nsamples = 17\nvalue = [17, 0]"] ;
247 -> 248 ;
249 [label="gini = 0.0\nsamples = 1\nvalue = [0, 1]"] ;
247 -> 249 ;
250 [label="chroma - 18 <= 0.5304\ngini = 0.32\nsamples = 10\nvalue = [2, 8]"] ;
246 -> 250 ;
251 [label="gini = 0.0\nsamples = 8\nvalue = [0, 8]"] ;
250 -> 251 ;
252 [label="gini = 0.0\nsamples = 2\nvalue = [2, 0]"] ;
250 -> 252 ;
253 [label="chroma - 2 <= 0.7949\ngini = 0.2347\nsamples = 81\nvalue = [11, 70]"] ;
245 -> 253 ;
254 [label="mfcc - 0 <= -116.7207\ngini = 0.1472\nsamples = 75\nvalue = [6, 69]"] ;
253 -> 254 ;
255 [label="mfcc - 23 <= 19.6974\ngini = 0.0548\nsamples = 71\nvalue = [2, 69]"] ;
254 -> 255 ;
256 [label="mfcc - 25 <= -15.722\ngini = 0.0282\nsamples = 70\nvalue = [1, 69]"] ;
255 -> 256 ;
257 [label="gini = 0.0\nsamples = 1\nvalue = [1, 0]"] ;
256 -> 257 ;
258 [label="gini = 0.0\nsamples = 69\nvalue = [0, 69]"] ;
256 -> 258 ;
259 [label="gini = 0.0\nsamples = 1\nvalue = [1, 0]"] ;
255 -> 259 ;
260 [label="gini = 0.0\nsamples = 4\nvalue = [4, 0]"] ;
254 -> 260 ;
261 [label="chroma_std - 1 <= 0.3023\ngini = 0.2778\nsamples = 6\nvalue = [5, 1]"] ;
253 -> 261 ;
262 [label="gini = 0.0\nsamples = 5\nvalue = [5, 0]"] ;
261 -> 262 ;
263 [label="gini = 0.0\nsamples = 1\nvalue = [0, 1]"] ;
261 -> 263 ;
264 [label="mfcc - 36 <= -0.834\ngini = 0.4673\nsamples = 43\nvalue = [27, 16]"] ;
210 -> 264 ;
265 [label="chroma - 16 <= 0.029\ngini = 0.1472\nsamples = 25\nvalue = [23, 2]"] ;
264 -> 265 ;
266 [label="gini = 0.0\nsamples = 2\nvalue = [0, 2]"] ;
265 -> 266 ;
267 [label="gini = 0.0\nsamples = 23\nvalue = [23, 0]"] ;
265 -> 267 ;
268 [label="pre_attack - 1 <= 1.5229\ngini = 0.3457\nsamples = 18\nvalue = [4, 14]"] ;
264 -> 268 ;
269 [label="gini = 0.0\nsamples = 3\nvalue = [3, 0]"] ;
268 -> 269 ;
270 [label="mfcc - 1 <= -164.6721\ngini = 0.1244\nsamples = 15\nvalue = [1, 14]"] ;
268 -> 270 ;
271 [label="gini = 0.0\nsamples = 14\nvalue = [0, 14]"] ;
270 -> 271 ;
272 [label="gini = 0.0\nsamples = 1\nvalue = [1, 0]"] ;
270 -> 272 ;
273 [label="spectral_centroid - 0 <= 5604.0781\ngini = 0.0282\nsamples = 5812\nvalue = [83, 5729]"] ;
209 -> 273 ;
274 [label="spectral_centroid - 0 <= 3103.4058\ngini = 0.0262\nsamples = 5804\nvalue = [77, 5727]"] ;
273 -> 274 ;
275 [label="pre_attack - 1 <= 1.2509\ngini = 0.0152\nsamples = 5357\nvalue = [41, 5316]"] ;
274 -> 275 ;
276 [label="mfcc - 28 <= 21.9899\ngini = 0.1197\nsamples = 344\nvalue = [22, 322]"] ;
275 -> 276 ;
277 [label="chroma_std - 1 <= 0.2273\ngini = 0.1006\nsamples = 339\nvalue = [18, 321]"] ;
276 -> 277 ;
278 [label="spectral_centroid - 0 <= 1779.3994\ngini = 0.4898\nsamples = 7\nvalue = [4, 3]"] ;
277 -> 278 ;
279 [label="gini = 0.0\nsamples = 3\nvalue = [3, 0]"] ;
278 -> 279 ;
280 [label="mfcc - 38 <= 0.3738\ngini = 0.375\nsamples = 4\nvalue = [1, 3]"] ;
278 -> 280 ;
281 [label="gini = 0.0\nsamples = 1\nvalue = [1, 0]"] ;
280 -> 281 ;
282 [label="gini = 0.0\nsamples = 3\nvalue = [0, 3]"] ;
280 -> 282 ;
283 [label="mfcc - 1 <= -249.3602\ngini = 0.0808\nsamples = 332\nvalue = [14, 318]"] ;
277 -> 283 ;
284 [label="chroma - 7 <= 0.9619\ngini = 0.0703\nsamples = 329\nvalue = [12, 317]"] ;
283 -> 284 ;
285 [label="mfcc - 37 <= -34.2402\ngini = 0.0278\nsamples = 284\nvalue = [4, 280]"] ;
284 -> 285 ;
286 [label="gini = 0.0\nsamples = 1\nvalue = [1, 0]"] ;
285 -> 286 ;
287 [label="gini = 0.021\nsamples = 283\nvalue = [3, 280]"] ;
285 -> 287 ;
288 [label="chroma - 20 <= 0.0111\ngini = 0.2923\nsamples = 45\nvalue = [8, 37]"] ;
284 -> 288 ;
289 [label="gini = 0.497\nsamples = 13\nvalue = [7, 6]"] ;
288 -> 289 ;
290 [label="gini = 0.0605\nsamples = 32\nvalue = [1, 31]"] ;
288 -> 290 ;
291 [label="mfcc - 6 <= -16.401\ngini = 0.4444\nsamples = 3\nvalue = [2, 1]"] ;
283 -> 291 ;
292 [label="gini = 0.0\nsamples = 1\nvalue = [0, 1]"] ;
291 -> 292 ;
293 [label="gini = 0.0\nsamples = 2\nvalue = [2, 0]"] ;
291 -> 293 ;
294 [label="mfcc - 38 <= -11.0466\ngini = 0.32\nsamples = 5\nvalue = [4, 1]"] ;
276 -> 294 ;
295 [label="gini = 0.0\nsamples = 1\nvalue = [0, 1]"] ;
294 -> 295 ;
296 [label="gini = 0.0\nsamples = 4\nvalue = [4, 0]"] ;
294 -> 296 ;
297 [label="mfcc - 4 <= -21.525\ngini = 0.0076\nsamples = 5013\nvalue = [19, 4994]"] ;
275 -> 297 ;
298 [label="mfcc - 22 <= 50.5892\ngini = 0.006\nsamples = 5000\nvalue = [15, 4985]"] ;
297 -> 298 ;
299 [label="mfcc - 34 <= 22.8953\ngini = 0.0056\nsamples = 4999\nvalue = [14, 4985]"] ;
298 -> 299 ;
300 [label="mfcc - 26 <= 32.7538\ngini = 0.004\nsamples = 4970\nvalue = [10, 4960]"] ;
299 -> 300 ;
301 [label="mfcc - 16 <= -41.2875\ngini = 0.0028\nsamples = 4939\nvalue = [7, 4932]"] ;
300 -> 301 ;
302 [label="gini = 0.32\nsamples = 5\nvalue = [1, 4]"] ;
301 -> 302 ;
303 [label="gini = 0.0024\nsamples = 4934\nvalue = [6, 4928]"] ;
301 -> 303 ;
304 [label="pre_attack - 1 <= 1.7331\ngini = 0.1748\nsamples = 31\nvalue = [3, 28]"] ;
300 -> 304 ;
305 [label="gini = 0.375\nsamples = 4\nvalue = [3, 1]"] ;
304 -> 305 ;
306 [label="gini = 0.0\nsamples = 27\nvalue = [0, 27]"] ;
304 -> 306 ;
307 [label="mfcc - 30 <= -24.7535\ngini = 0.2378\nsamples = 29\nvalue = [4, 25]"] ;
299 -> 307 ;
308 [label="gini = 0.0\nsamples = 4\nvalue = [4, 0]"] ;
307 -> 308 ;
309 [label="gini = 0.0\nsamples = 25\nvalue = [0, 25]"] ;
307 -> 309 ;
310 [label="gini = 0.0\nsamples = 1\nvalue = [1, 0]"] ;
298 -> 310 ;
311 [label="mfcc - 29 <= -3.239\ngini = 0.426\nsamples = 13\nvalue = [4, 9]"] ;
297 -> 311 ;
312 [label="gini = 0.0\nsamples = 4\nvalue = [4, 0]"] ;
311 -> 312 ;
313 [label="gini = 0.0\nsamples = 9\nvalue = [0, 9]"] ;
311 -> 313 ;
314 [label="mfcc - 9 <= 24.9214\ngini = 0.1481\nsamples = 447\nvalue = [36, 411]"] ;
274 -> 314 ;
315 [label="mfcc - 13 <= -9.8228\ngini = 0.0929\nsamples = 430\nvalue = [21, 409]"] ;
314 -> 315 ;
316 [label="chroma - 6 <= 0.2836\ngini = 0.3636\nsamples = 67\nvalue = [16, 51]"] ;
315 -> 316 ;
317 [label="mfcc - 24 <= -28.3106\ngini = 0.2293\nsamples = 53\nvalue = [7, 46]"] ;
316 -> 317 ;
318 [label="chroma - 18 <= 0.0137\ngini = 0.2778\nsamples = 6\nvalue = [5, 1]"] ;
317 -> 318 ;
319 [label="gini = 0.0\nsamples = 1\nvalue = [0, 1]"] ;
318 -> 319 ;
320 [label="gini = 0.0\nsamples = 5\nvalue = [5, 0]"] ;
318 -> 320 ;
321 [label="chroma - 7 <= 0.9345\ngini = 0.0815\nsamples = 47\nvalue = [2, 45]"] ;
317 -> 321 ;
322 [label="mfcc - 2 <= 23.6074\ngini = 0.0425\nsamples = 46\nvalue = [1, 45]"] ;
321 -> 322 ;
323 [label="gini = 0.0\nsamples = 1\nvalue = [1, 0]"] ;
322 -> 323 ;
324 [label="gini = 0.0\nsamples = 45\nvalue = [0, 45]"] ;
322 -> 324 ;
325 [label="gini = 0.0\nsamples = 1\nvalue = [1, 0]"] ;
321 -> 325 ;
326 [label="mfcc - 14 <= 12.4352\ngini = 0.4592\nsamples = 14\nvalue = [9, 5]"] ;
316 -> 326 ;
327 [label="gini = 0.0\nsamples = 9\nvalue = [9, 0]"] ;
326 -> 327 ;
328 [label="gini = 0.0\nsamples = 5\nvalue = [0, 5]"] ;
326 -> 328 ;
329 [label="mfcc - 24 <= 38.7663\ngini = 0.0272\nsamples = 363\nvalue = [5, 358]"] ;
315 -> 329 ;
330 [label="mfcc - 1 <= -15.9316\ngini = 0.0219\nsamples = 362\nvalue = [4, 358]"] ;
329 -> 330 ;
331 [label="mfcc - 37 <= -20.7773\ngini = 0.0165\nsamples = 361\nvalue = [3, 358]"] ;
330 -> 331 ;
332 [label="pre_attack - 1 <= 1.362\ngini = 0.5\nsamples = 2\nvalue = [1, 1]"] ;
331 -> 332 ;
333 [label="gini = 0.0\nsamples = 1\nvalue = [0, 1]"] ;
332 -> 333 ;
334 [label="gini = 0.0\nsamples = 1\nvalue = [1, 0]"] ;
332 -> 334 ;
335 [label="mfcc - 2 <= 126.3164\ngini = 0.0111\nsamples = 359\nvalue = [2, 357]"] ;
331 -> 335 ;
336 [label="gini = 0.0056\nsamples = 357\nvalue = [1, 356]"] ;
335 -> 336 ;
337 [label="gini = 0.5\nsamples = 2\nvalue = [1, 1]"] ;
335 -> 337 ;
338 [label="gini = 0.0\nsamples = 1\nvalue = [1, 0]"] ;
330 -> 338 ;
339 [label="gini = 0.0\nsamples = 1\nvalue = [1, 0]"] ;
329 -> 339 ;
340 [label="mfcc - 24 <= 8.9793\ngini = 0.2076\nsamples = 17\nvalue = [15, 2]"] ;
314 -> 340 ;
341 [label="gini = 0.0\nsamples = 15\nvalue = [15, 0]"] ;
340 -> 341 ;
342 [label="gini = 0.0\nsamples = 2\nvalue = [0, 2]"] ;
340 -> 342 ;
343 [label="mfcc - 3 <= 89.1954\ngini = 0.375\nsamples = 8\nvalue = [6, 2]"] ;
273 -> 343 ;
344 [label="gini = 0.0\nsamples = 6\nvalue = [6, 0]"] ;
343 -> 344 ;
345 [label="gini = 0.0\nsamples = 2\nvalue = [0, 2]"] ;
343 -> 345 ;
346 [label="gini = 0.0\nsamples = 10\nvalue = [10, 0]"] ;
208 -> 346 ;
347 [label="mfcc - 5 <= -62.4604\ngini = 0.4931\nsamples = 68\nvalue = [30, 38]"] ;
207 -> 347 ;
348 [label="gini = 0.0\nsamples = 37\nvalue = [0, 37]"] ;
347 -> 348 ;
349 [label="mfcc - 39 <= 11.0804\ngini = 0.0624\nsamples = 31\nvalue = [30, 1]"] ;
347 -> 349 ;
350 [label="gini = 0.0\nsamples = 30\nvalue = [30, 0]"] ;
349 -> 350 ;
351 [label="gini = 0.0\nsamples = 1\nvalue = [0, 1]"] ;
349 -> 351 ;
352 [label="mfcc - 4 <= -61.4431\ngini = 0.4105\nsamples = 208\nvalue = [148, 60]"] ;
206 -> 352 ;
353 [label="mfcc - 9 <= 21.3381\ngini = 0.1505\nsamples = 61\nvalue = [5, 56]"] ;
352 -> 353 ;
354 [label="gini = 0.0\nsamples = 53\nvalue = [0, 53]"] ;
353 -> 354 ;
355 [label="mfcc - 5 <= -95.7968\ngini = 0.4688\nsamples = 8\nvalue = [5, 3]"] ;
353 -> 355 ;
356 [label="gini = 0.0\nsamples = 3\nvalue = [0, 3]"] ;
355 -> 356 ;
357 [label="gini = 0.0\nsamples = 5\nvalue = [5, 0]"] ;
355 -> 357 ;
358 [label="mfcc - 8 <= -4.642\ngini = 0.0529\nsamples = 147\nvalue = [143, 4]"] ;
352 -> 358 ;
359 [label="gini = 0.0\nsamples = 4\nvalue = [0, 4]"] ;
358 -> 359 ;
360 [label="gini = 0.0\nsamples = 143\nvalue = [143, 0]"] ;
358 -> 360 ;
361 [label="pre_attack - 1 <= 0.8945\ngini = 0.4634\nsamples = 5124\nvalue = [3255, 1869]"] ;
1 -> 361 ;
362 [label="chroma - 11 <= 0.0169\ngini = 0.2337\nsamples = 2606\nvalue = [2254, 352]"] ;
361 -> 362 ;
363 [label="mfcc - 10 <= -11.8052\ngini = 0.4861\nsamples = 204\nvalue = [85, 119]"] ;
362 -> 363 ;
364 [label="mfcc - 7 <= 13.1878\ngini = 0.1509\nsamples = 73\nvalue = [67, 6]"] ;
363 -> 364 ;
365 [label="mfcc - 13 <= 0.785\ngini = 0.4898\nsamples = 7\nvalue = [3, 4]"] ;
364 -> 365 ;
366 [label="gini = 0.0\nsamples = 3\nvalue = [3, 0]"] ;
365 -> 366 ;
367 [label="gini = 0.0\nsamples = 4\nvalue = [0, 4]"] ;
365 -> 367 ;
368 [label="chroma - 11 <= 0.0154\ngini = 0.0588\nsamples = 66\nvalue = [64, 2]"] ;
364 -> 368 ;
369 [label="gini = 0.0\nsamples = 64\nvalue = [64, 0]"] ;
368 -> 369 ;
370 [label="gini = 0.0\nsamples = 2\nvalue = [0, 2]"] ;
368 -> 370 ;
371 [label="chroma - 12 <= 0.0147\ngini = 0.237\nsamples = 131\nvalue = [18, 113]"] ;
363 -> 371 ;
372 [label="gini = 0.0\nsamples = 98\nvalue = [0, 98]"] ;
371 -> 372 ;
373 [label="mfcc - 6 <= 34.1634\ngini = 0.4959\nsamples = 33\nvalue = [18, 15]"] ;
371 -> 373 ;
374 [label="chroma - 0 <= 0.2194\ngini = 0.4082\nsamples = 21\nvalue = [6, 15]"] ;
373 -> 374 ;
375 [label="mfcc - 0 <= -431.2733\ngini = 0.2778\nsamples = 6\nvalue = [5, 1]"] ;
374 -> 375 ;
376 [label="gini = 0.0\nsamples = 1\nvalue = [0, 1]"] ;
375 -> 376 ;
377 [label="gini = 0.0\nsamples = 5\nvalue = [5, 0]"] ;
375 -> 377 ;
378 [label="mfcc - 0 <= -293.19\ngini = 0.1244\nsamples = 15\nvalue = [1, 14]"] ;
374 -> 378 ;
379 [label="gini = 0.0\nsamples = 14\nvalue = [0, 14]"] ;
378 -> 379 ;
380 [label="gini = 0.0\nsamples = 1\nvalue = [1, 0]"] ;
378 -> 380 ;
381 [label="gini = 0.0\nsamples = 12\nvalue = [12, 0]"] ;
373 -> 381 ;
382 [label="mfcc - 9 <= -52.7051\ngini = 0.1752\nsamples = 2402\nvalue = [2169, 233]"] ;
362 -> 382 ;
383 [label="mfcc - 8 <= -45.3509\ngini = 0.4444\nsamples = 39\nvalue = [13, 26]"] ;
382 -> 383 ;
384 [label="mfcc - 3 <= 203.9516\ngini = 0.0832\nsamples = 23\nvalue = [1, 22]"] ;
383 -> 384 ;
385 [label="gini = 0.0\nsamples = 22\nvalue = [0, 22]"] ;
384 -> 385 ;
386 [label="gini = 0.0\nsamples = 1\nvalue = [1, 0]"] ;
384 -> 386 ;
387 [label="mfcc - 9 <= -64.2118\ngini = 0.375\nsamples = 16\nvalue = [12, 4]"] ;
383 -> 387 ;
388 [label="gini = 0.0\nsamples = 4\nvalue = [0, 4]"] ;
387 -> 388 ;
389 [label="gini = 0.0\nsamples = 12\nvalue = [12, 0]"] ;
387 -> 389 ;
390 [label="mfcc - 7 <= 8.7105\ngini = 0.1599\nsamples = 2363\nvalue = [2156, 207]"] ;
382 -> 390 ;
391 [label="mfcc - 10 <= 11.8527\ngini = 0.3231\nsamples = 380\nvalue = [303, 77]"] ;
390 -> 391 ;
392 [label="mfcc - 23 <= 13.3073\ngini = 0.2616\nsamples = 336\nvalue = [284, 52]"] ;
391 -> 392 ;
393 [label="mfcc - 31 <= 12.7905\ngini = 0.2076\nsamples = 306\nvalue = [270, 36]"] ;
392 -> 393 ;
394 [label="spectral_centroid - 1 <= 1956.468\ngini = 0.1462\nsamples = 277\nvalue = [255, 22]"] ;
393 -> 394 ;
395 [label="mfcc - 15 <= 14.6711\ngini = 0.4152\nsamples = 51\nvalue = [36, 15]"] ;
394 -> 395 ;
396 [label="spectral_centroid - 1 <= 1897.994\ngini = 0.142\nsamples = 39\nvalue = [36, 3]"] ;
395 -> 396 ;
397 [label="chroma_std - 1 <= 0.3052\ngini = 0.0526\nsamples = 37\nvalue = [36, 1]"] ;
396 -> 397 ;
398 [label="gini = 0.0\nsamples = 36\nvalue = [36, 0]"] ;
397 -> 398 ;
399 [label="gini = 0.0\nsamples = 1\nvalue = [0, 1]"] ;
397 -> 399 ;
400 [label="gini = 0.0\nsamples = 2\nvalue = [0, 2]"] ;
396 -> 400 ;
401 [label="gini = 0.0\nsamples = 12\nvalue = [0, 12]"] ;
395 -> 401 ;
402 [label="chroma - 12 <= 0.0019\ngini = 0.06\nsamples = 226\nvalue = [219, 7]"] ;
394 -> 402 ;
403 [label="gini = 0.0\nsamples = 1\nvalue = [0, 1]"] ;
402 -> 403 ;
404 [label="mfcc - 39 <= -17.4953\ngini = 0.0519\nsamples = 225\nvalue = [219, 6]"] ;
402 -> 404 ;
405 [label="gini = 0.0\nsamples = 1\nvalue = [0, 1]"] ;
404 -> 405 ;
406 [label="mfcc - 2 <= 235.1368\ngini = 0.0436\nsamples = 224\nvalue = [219, 5]"] ;
404 -> 406 ;
407 [label="chroma_std - 1 <= 0.1366\ngini = 0.0352\nsamples = 223\nvalue = [219, 4]"] ;
406 -> 407 ;
408 [label="gini = 0.0\nsamples = 1\nvalue = [0, 1]"] ;
407 -> 408 ;
409 [label="mfcc - 32 <= 26.1521\ngini = 0.0267\nsamples = 222\nvalue = [219, 3]"] ;
407 -> 409 ;
410 [label="gini = 0.018\nsamples = 220\nvalue = [218, 2]"] ;
409 -> 410 ;
411 [label="gini = 0.5\nsamples = 2\nvalue = [1, 1]"] ;
409 -> 411 ;
412 [label="gini = 0.0\nsamples = 1\nvalue = [0, 1]"] ;
406 -> 412 ;
413 [label="chroma_std - 1 <= 0.2715\ngini = 0.4994\nsamples = 29\nvalue = [15, 14]"] ;
393 -> 413 ;
414 [label="mfcc - 26 <= -6.0219\ngini = 0.1653\nsamples = 11\nvalue = [1, 10]"] ;
413 -> 414 ;
415 [label="gini = 0.0\nsamples = 1\nvalue = [1, 0]"] ;
414 -> 415 ;
416 [label="gini = 0.0\nsamples = 10\nvalue = [0, 10]"] ;
414 -> 416 ;
417 [label="chroma - 2 <= 0.7759\ngini = 0.3457\nsamples = 18\nvalue = [14, 4]"] ;
413 -> 417 ;
418 [label="mfcc - 12 <= 10.011\ngini = 0.1327\nsamples = 14\nvalue = [13, 1]"] ;
417 -> 418 ;
419 [label="gini = 0.0\nsamples = 13\nvalue = [13, 0]"] ;
418 -> 419 ;
420 [label="gini = 0.0\nsamples = 1\nvalue = [0, 1]"] ;
418 -> 420 ;
421 [label="chroma - 3 <= 0.5191\ngini = 0.375\nsamples = 4\nvalue = [1, 3]"] ;
417 -> 421 ;
422 [label="gini = 0.0\nsamples = 1\nvalue = [1, 0]"] ;
421 -> 422 ;
423 [label="gini = 0.0\nsamples = 3\nvalue = [0, 3]"] ;
421 -> 423 ;
424 [label="mfcc - 2 <= 82.3619\ngini = 0.4978\nsamples = 30\nvalue = [14, 16]"] ;
392 -> 424 ;
425 [label="gini = 0.0\nsamples = 7\nvalue = [7, 0]"] ;
424 -> 425 ;
426 [label="mfcc - 22 <= 1.877\ngini = 0.4234\nsamples = 23\nvalue = [7, 16]"] ;
424 -> 426 ;
427 [label="gini = 0.0\nsamples = 4\nvalue = [4, 0]"] ;
426 -> 427 ;
428 [label="chroma - 8 <= 0.0171\ngini = 0.2659\nsamples = 19\nvalue = [3, 16]"] ;
426 -> 428 ;
429 [label="gini = 0.0\nsamples = 2\nvalue = [2, 0]"] ;
428 -> 429 ;
430 [label="chroma - 19 <= 0.951\ngini = 0.1107\nsamples = 17\nvalue = [1, 16]"] ;
428 -> 430 ;
431 [label="gini = 0.0\nsamples = 16\nvalue = [0, 16]"] ;
430 -> 431 ;
432 [label="gini = 0.0\nsamples = 1\nvalue = [1, 0]"] ;
430 -> 432 ;
433 [label="chroma - 23 <= 0.5031\ngini = 0.4907\nsamples = 44\nvalue = [19, 25]"] ;
391 -> 433 ;
434 [label="mfcc - 11 <= 3.0775\ngini = 0.375\nsamples = 32\nvalue = [8, 24]"] ;
433 -> 434 ;
435 [label="mfcc - 28 <= 1.514\ngini = 0.2449\nsamples = 7\nvalue = [6, 1]"] ;
434 -> 435 ;
436 [label="gini = 0.0\nsamples = 6\nvalue = [6, 0]"] ;
435 -> 436 ;
437 [label="gini = 0.0\nsamples = 1\nvalue = [0, 1]"] ;
435 -> 437 ;
438 [label="mfcc - 10 <= 38.7425\ngini = 0.1472\nsamples = 25\nvalue = [2, 23]"] ;
434 -> 438 ;
439 [label="mfcc - 4 <= -104.0937\ngini = 0.0799\nsamples = 24\nvalue = [1, 23]"] ;
438 -> 439 ;
440 [label="mfcc - 5 <= -96.19\ngini = 0.5\nsamples = 2\nvalue = [1, 1]"] ;
439 -> 440 ;
441 [label="gini = 0.0\nsamples = 1\nvalue = [1, 0]"] ;
440 -> 441 ;
442 [label="gini = 0.0\nsamples = 1\nvalue = [0, 1]"] ;
440 -> 442 ;
443 [label="gini = 0.0\nsamples = 22\nvalue = [0, 22]"] ;
439 -> 443 ;
444 [label="gini = 0.0\nsamples = 1\nvalue = [1, 0]"] ;
438 -> 444 ;
445 [label="chroma - 16 <= 0.0642\ngini = 0.1528\nsamples = 12\nvalue = [11, 1]"] ;
433 -> 445 ;
446 [label="gini = 0.0\nsamples = 1\nvalue = [0, 1]"] ;
445 -> 446 ;
447 [label="gini = 0.0\nsamples = 11\nvalue = [11, 0]"] ;
445 -> 447 ;
448 [label="mfcc - 2 <= 256.6122\ngini = 0.1225\nsamples = 1983\nvalue = [1853, 130]"] ;
390 -> 448 ;
449 [label="pre_attack - 1 <= 0.6285\ngini = 0.1177\nsamples = 1975\nvalue = [1851, 124]"] ;
448 -> 449 ;
450 [label="mfcc - 33 <= 12.8023\ngini = 0.0881\nsamples = 1710\nvalue = [1631, 79]"] ;
449 -> 450 ;
451 [label="mfcc - 35 <= -22.0409\ngini = 0.067\nsamples = 1613\nvalue = [1557, 56]"] ;
450 -> 451 ;
452 [label="gini = 0.0\nsamples = 3\nvalue = [0, 3]"] ;
451 -> 452 ;
453 [label="mfcc - 21 <= 35.003\ngini = 0.0637\nsamples = 1610\nvalue = [1557, 53]"] ;
451 -> 453 ;
454 [label="chroma_avg - 1 <= 0.8626\ngini = 0.0614\nsamples = 1608\nvalue = [1557, 51]"] ;
453 -> 454 ;
455 [label="pre_attack - 0 <= 0.0952\ngini = 0.0592\nsamples = 1606\nvalue = [1557, 49]"] ;
454 -> 455 ;
456 [label="mfcc - 19 <= -5.9669\ngini = 0.3122\nsamples = 62\nvalue = [50, 12]"] ;
455 -> 456 ;
457 [label="mfcc - 8 <= -11.4243\ngini = 0.48\nsamples = 15\nvalue = [6, 9]"] ;
456 -> 457 ;
458 [label="gini = 0.0\nsamples = 8\nvalue = [0, 8]"] ;
457 -> 458 ;
459 [label="gini = 0.2449\nsamples = 7\nvalue = [6, 1]"] ;
457 -> 459 ;
460 [label="mfcc - 26 <= -21.9842\ngini = 0.1195\nsamples = 47\nvalue = [44, 3]"] ;
456 -> 460 ;
461 [label="gini = 0.0\nsamples = 1\nvalue = [0, 1]"] ;
460 -> 461 ;
462 [label="gini = 0.0832\nsamples = 46\nvalue = [44, 2]"] ;
460 -> 462 ;
463 [label="mfcc - 15 <= -31.6882\ngini = 0.0468\nsamples = 1544\nvalue = [1507, 37]"] ;
455 -> 463 ;
464 [label="mfcc - 33 <= 0.4766\ngini = 0.4688\nsamples = 8\nvalue = [5, 3]"] ;
463 -> 464 ;
465 [label="gini = 0.0\nsamples = 5\nvalue = [5, 0]"] ;
464 -> 465 ;
466 [label="gini = 0.0\nsamples = 3\nvalue = [0, 3]"] ;
464 -> 466 ;
467 [label="mfcc - 38 <= -23.7007\ngini = 0.0433\nsamples = 1536\nvalue = [1502, 34]"] ;
463 -> 467 ;
468 [label="gini = 0.0\nsamples = 1\nvalue = [0, 1]"] ;
467 -> 468 ;
469 [label="gini = 0.0421\nsamples = 1535\nvalue = [1502, 33]"] ;
467 -> 469 ;
470 [label="gini = 0.0\nsamples = 2\nvalue = [0, 2]"] ;
454 -> 470 ;
471 [label="gini = 0.0\nsamples = 2\nvalue = [0, 2]"] ;
453 -> 471 ;
472 [label="mfcc - 9 <= -27.6651\ngini = 0.3618\nsamples = 97\nvalue = [74, 23]"] ;
450 -> 472 ;
473 [label="chroma - 11 <= 0.3349\ngini = 0.2778\nsamples = 18\nvalue = [3, 15]"] ;
472 -> 473 ;
474 [label="gini = 0.0\nsamples = 15\nvalue = [0, 15]"] ;
473 -> 474 ;
475 [label="gini = 0.0\nsamples = 3\nvalue = [3, 0]"] ;
473 -> 475 ;
476 [label="mfcc - 10 <= 29.3187\ngini = 0.182\nsamples = 79\nvalue = [71, 8]"] ;
472 -> 476 ;
477 [label="mfcc - 37 <= -23.6332\ngini = 0.0788\nsamples = 73\nvalue = [70, 3]"] ;
476 -> 477 ;
478 [label="gini = 0.0\nsamples = 1\nvalue = [0, 1]"] ;
477 -> 478 ;
479 [label="pre_attack - 0 <= 0.0637\ngini = 0.054\nsamples = 72\nvalue = [70, 2]"] ;
477 -> 479 ;
480 [label="mfcc - 8 <= 5.2215\ngini = 0.5\nsamples = 2\nvalue = [1, 1]"] ;
479 -> 480 ;
481 [label="gini = 0.0\nsamples = 1\nvalue = [0, 1]"] ;
480 -> 481 ;
482 [label="gini = 0.0\nsamples = 1\nvalue = [1, 0]"] ;
480 -> 482 ;
483 [label="mfcc - 17 <= 21.9714\ngini = 0.0282\nsamples = 70\nvalue = [69, 1]"] ;
479 -> 483 ;
484 [label="gini = 0.0\nsamples = 68\nvalue = [68, 0]"] ;
483 -> 484 ;
485 [label="chroma - 3 <= 0.1756\ngini = 0.5\nsamples = 2\nvalue = [1, 1]"] ;
483 -> 485 ;
486 [label="gini = 0.0\nsamples = 1\nvalue = [1, 0]"] ;
485 -> 486 ;
487 [label="gini = 0.0\nsamples = 1\nvalue = [0, 1]"] ;
485 -> 487 ;
488 [label="chroma - 16 <= 0.5242\ngini = 0.2778\nsamples = 6\nvalue = [1, 5]"] ;
476 -> 488 ;
489 [label="gini = 0.0\nsamples = 5\nvalue = [0, 5]"] ;
488 -> 489 ;
490 [label="gini = 0.0\nsamples = 1\nvalue = [1, 0]"] ;
488 -> 490 ;
491 [label="mfcc - 25 <= -19.1361\ngini = 0.282\nsamples = 265\nvalue = [220, 45]"] ;
449 -> 491 ;
492 [label="mfcc - 13 <= 0.4283\ngini = 0.3878\nsamples = 19\nvalue = [5, 14]"] ;
491 -> 492 ;
493 [label="mfcc - 5 <= -96.496\ngini = 0.2778\nsamples = 6\nvalue = [5, 1]"] ;
492 -> 493 ;
494 [label="gini = 0.0\nsamples = 1\nvalue = [0, 1]"] ;
493 -> 494 ;
495 [label="gini = 0.0\nsamples = 5\nvalue = [5, 0]"] ;
493 -> 495 ;
496 [label="gini = 0.0\nsamples = 13\nvalue = [0, 13]"] ;
492 -> 496 ;
497 [label="mfcc - 16 <= 23.0924\ngini = 0.2203\nsamples = 246\nvalue = [215, 31]"] ;
491 -> 497 ;
498 [label="mfcc - 27 <= 21.4862\ngini = 0.1697\nsamples = 235\nvalue = [213, 22]"] ;
497 -> 498 ;
499 [label="mfcc - 39 <= -16.127\ngini = 0.1141\nsamples = 214\nvalue = [201, 13]"] ;
498 -> 499 ;
500 [label="gini = 0.0\nsamples = 2\nvalue = [0, 2]"] ;
499 -> 500 ;
501 [label="mfcc - 6 <= 15.5976\ngini = 0.0984\nsamples = 212\nvalue = [201, 11]"] ;
499 -> 501 ;
502 [label="chroma - 1 <= 0.8143\ngini = 0.3662\nsamples = 29\nvalue = [22, 7]"] ;
501 -> 502 ;
503 [label="pre_attack - 1 <= 0.7511\ngini = 0.2604\nsamples = 26\nvalue = [22, 4]"] ;
502 -> 503 ;
504 [label="gini = 0.48\nsamples = 10\nvalue = [6, 4]"] ;
503 -> 504 ;
505 [label="gini = 0.0\nsamples = 16\nvalue = [16, 0]"] ;
503 -> 505 ;
506 [label="gini = 0.0\nsamples = 3\nvalue = [0, 3]"] ;
502 -> 506 ;
507 [label="mfcc - 38 <= -16.9586\ngini = 0.0428\nsamples = 183\nvalue = [179, 4]"] ;
501 -> 507 ;
508 [label="gini = 0.0\nsamples = 1\nvalue = [0, 1]"] ;
507 -> 508 ;
509 [label="mfcc - 5 <= -39.7613\ngini = 0.0324\nsamples = 182\nvalue = [179, 3]"] ;
507 -> 509 ;
510 [label="gini = 0.022\nsamples = 180\nvalue = [178, 2]"] ;
509 -> 510 ;
511 [label="gini = 0.5\nsamples = 2\nvalue = [1, 1]"] ;
509 -> 511 ;
512 [label="mfcc - 17 <= -8.5225\ngini = 0.4898\nsamples = 21\nvalue = [12, 9]"] ;
498 -> 512 ;
513 [label="gini = 0.0\nsamples = 10\nvalue = [10, 0]"] ;
512 -> 513 ;
514 [label="mfcc - 36 <= -21.616\ngini = 0.2975\nsamples = 11\nvalue = [2, 9]"] ;
512 -> 514 ;
515 [label="gini = 0.0\nsamples = 2\nvalue = [2, 0]"] ;
514 -> 515 ;
516 [label="gini = 0.0\nsamples = 9\nvalue = [0, 9]"] ;
514 -> 516 ;
517 [label="chroma - 8 <= 0.1605\ngini = 0.2975\nsamples = 11\nvalue = [2, 9]"] ;
497 -> 517 ;
518 [label="gini = 0.0\nsamples = 2\nvalue = [2, 0]"] ;
517 -> 518 ;
519 [label="gini = 0.0\nsamples = 9\nvalue = [0, 9]"] ;
517 -> 519 ;
520 [label="pre_attack - 1 <= 0.677\ngini = 0.375\nsamples = 8\nvalue = [2, 6]"] ;
448 -> 520 ;
521 [label="gini = 0.0\nsamples = 6\nvalue = [0, 6]"] ;
520 -> 521 ;
522 [label="gini = 0.0\nsamples = 2\nvalue = [2, 0]"] ;
520 -> 522 ;
523 [label="spectral_centroid - 0 <= 4449.9839\ngini = 0.479\nsamples = 2518\nvalue = [1001, 1517]"] ;
361 -> 523 ;
524 [label="chroma_avg - 1 <= 0.3816\ngini = 0.4247\nsamples = 2082\nvalue = [637, 1445]"] ;
523 -> 524 ;
525 [label="mfcc - 9 <= 23.6103\ngini = 0.32\nsamples = 1470\nvalue = [294, 1176]"] ;
524 -> 525 ;
526 [label="mfcc - 2 <= 193.0686\ngini = 0.2397\nsamples = 1221\nvalue = [170, 1051]"] ;
525 -> 526 ;
527 [label="mfcc - 7 <= 37.9762\ngini = 0.1803\nsamples = 1118\nvalue = [112, 1006]"] ;
526 -> 527 ;
528 [label="pre_attack - 0 <= 0.4706\ngini = 0.1141\nsamples = 971\nvalue = [59, 912]"] ;
527 -> 528 ;
529 [label="mfcc - 9 <= -24.5406\ngini = 0.48\nsamples = 20\nvalue = [12, 8]"] ;
528 -> 529 ;
530 [label="gini = 0.0\nsamples = 6\nvalue = [0, 6]"] ;
529 -> 530 ;
531 [label="chroma - 20 <= 0.4867\ngini = 0.2449\nsamples = 14\nvalue = [12, 2]"] ;
529 -> 531 ;
532 [label="gini = 0.0\nsamples = 12\nvalue = [12, 0]"] ;
531 -> 532 ;
533 [label="gini = 0.0\nsamples = 2\nvalue = [0, 2]"] ;
531 -> 533 ;
534 [label="mfcc - 36 <= -23.0631\ngini = 0.094\nsamples = 951\nvalue = [47, 904]"] ;
528 -> 534 ;
535 [label="chroma - 19 <= 0.0113\ngini = 0.2778\nsamples = 6\nvalue = [5, 1]"] ;
534 -> 535 ;
536 [label="gini = 0.0\nsamples = 1\nvalue = [0, 1]"] ;
535 -> 536 ;
537 [label="gini = 0.0\nsamples = 5\nvalue = [5, 0]"] ;
535 -> 537 ;
538 [label="mfcc - 10 <= -39.3197\ngini = 0.0849\nsamples = 945\nvalue = [42, 903]"] ;
534 -> 538 ;
539 [label="chroma_std - 0 <= 0.3007\ngini = 0.375\nsamples = 4\nvalue = [3, 1]"] ;
538 -> 539 ;
540 [label="gini = 0.0\nsamples = 1\nvalue = [0, 1]"] ;
539 -> 540 ;
541 [label="gini = 0.0\nsamples = 3\nvalue = [3, 0]"] ;
539 -> 541 ;
542 [label="mfcc - 32 <= 32.8128\ngini = 0.0795\nsamples = 941\nvalue = [39, 902]"] ;
538 -> 542 ;
543 [label="mfcc - 4 <= -1.0652\ngini = 0.0739\nsamples = 937\nvalue = [36, 901]"] ;
542 -> 543 ;
544 [label="chroma_avg - 0 <= 0.4868\ngini = 0.0701\nsamples = 935\nvalue = [34, 901]"] ;
543 -> 544 ;
545 [label="mfcc - 37 <= -20.0628\ngini = 0.0594\nsamples = 914\nvalue = [28, 886]"] ;
544 -> 545 ;
546 [label="gini = 0.5\nsamples = 6\nvalue = [3, 3]"] ;
545 -> 546 ;
547 [label="gini = 0.0535\nsamples = 908\nvalue = [25, 883]"] ;
545 -> 547 ;
548 [label="mfcc - 16 <= -2.093\ngini = 0.4082\nsamples = 21\nvalue = [6, 15]"] ;
544 -> 548 ;
549 [label="gini = 0.375\nsamples = 8\nvalue = [6, 2]"] ;
548 -> 549 ;
550 [label="gini = 0.0\nsamples = 13\nvalue = [0, 13]"] ;
548 -> 550 ;
551 [label="gini = 0.0\nsamples = 2\nvalue = [2, 0]"] ;
543 -> 551 ;
552 [label="mfcc - 12 <= -16.6554\ngini = 0.375\nsamples = 4\nvalue = [3, 1]"] ;
542 -> 552 ;
553 [label="gini = 0.0\nsamples = 1\nvalue = [0, 1]"] ;
552 -> 553 ;
554 [label="gini = 0.0\nsamples = 3\nvalue = [3, 0]"] ;
552 -> 554 ;
555 [label="mfcc - 11 <= -25.2444\ngini = 0.4611\nsamples = 147\nvalue = [53, 94]"] ;
527 -> 555 ;
556 [label="mfcc - 35 <= -4.64\ngini = 0.0832\nsamples = 23\nvalue = [22, 1]"] ;
555 -> 556 ;
557 [label="gini = 0.0\nsamples = 1\nvalue = [0, 1]"] ;
556 -> 557 ;
558 [label="gini = 0.0\nsamples = 22\nvalue = [22, 0]"] ;
556 -> 558 ;
559 [label="chroma - 18 <= 0.2826\ngini = 0.375\nsamples = 124\nvalue = [31, 93]"] ;
555 -> 559 ;
560 [label="mfcc - 1 <= -191.2605\ngini = 0.1855\nsamples = 87\nvalue = [9, 78]"] ;
559 -> 560 ;
561 [label="mfcc - 0 <= -378.8851\ngini = 0.0758\nsamples = 76\nvalue = [3, 73]"] ;
560 -> 561 ;
562 [label="chroma - 7 <= 0.0003\ngini = 0.375\nsamples = 4\nvalue = [3, 1]"] ;
561 -> 562 ;
563 [label="gini = 0.0\nsamples = 1\nvalue = [0, 1]"] ;
562 -> 563 ;
564 [label="gini = 0.0\nsamples = 3\nvalue = [3, 0]"] ;
562 -> 564 ;
565 [label="gini = 0.0\nsamples = 72\nvalue = [0, 72]"] ;
561 -> 565 ;
566 [label="mfcc - 9 <= -41.3893\ngini = 0.4959\nsamples = 11\nvalue = [6, 5]"] ;
560 -> 566 ;
567 [label="gini = 0.0\nsamples = 5\nvalue = [0, 5]"] ;
566 -> 567 ;
568 [label="gini = 0.0\nsamples = 6\nvalue = [6, 0]"] ;
566 -> 568 ;
569 [label="chroma - 17 <= 0.4476\ngini = 0.4821\nsamples = 37\nvalue = [22, 15]"] ;
559 -> 569 ;
570 [label="mfcc - 32 <= 1.9732\ngini = 0.3457\nsamples = 27\nvalue = [21, 6]"] ;
569 -> 570 ;
571 [label="chroma - 22 <= 0.0947\ngini = 0.1653\nsamples = 22\nvalue = [20, 2]"] ;
570 -> 571 ;
572 [label="chroma_avg - 0 <= 0.2734\ngini = 0.4444\nsamples = 3\nvalue = [1, 2]"] ;
571 -> 572 ;
573 [label="gini = 0.0\nsamples = 1\nvalue = [1, 0]"] ;
572 -> 573 ;
574 [label="gini = 0.0\nsamples = 2\nvalue = [0, 2]"] ;
572 -> 574 ;
575 [label="gini = 0.0\nsamples = 19\nvalue = [19, 0]"] ;
571 -> 575 ;
576 [label="mfcc - 0 <= -196.8648\ngini = 0.32\nsamples = 5\nvalue = [1, 4]"] ;
570 -> 576 ;
577 [label="gini = 0.0\nsamples = 4\nvalue = [0, 4]"] ;
576 -> 577 ;
578 [label="gini = 0.0\nsamples = 1\nvalue = [1, 0]"] ;
576 -> 578 ;
579 [label="mfcc - 34 <= 5.5719\ngini = 0.18\nsamples = 10\nvalue = [1, 9]"] ;
569 -> 579 ;
580 [label="gini = 0.0\nsamples = 9\nvalue = [0, 9]"] ;
579 -> 580 ;
581 [label="gini = 0.0\nsamples = 1\nvalue = [1, 0]"] ;
579 -> 581 ;
582 [label="pre_attack - 0 <= 1.8255\ngini = 0.492\nsamples = 103\nvalue = [58, 45]"] ;
526 -> 582 ;
583 [label="chroma - 13 <= 0.5993\ngini = 0.1626\nsamples = 56\nvalue = [51, 5]"] ;
582 -> 583 ;
584 [label="chroma - 21 <= 0.0295\ngini = 0.0726\nsamples = 53\nvalue = [51, 2]"] ;
583 -> 584 ;
585 [label="chroma - 18 <= 0.0307\ngini = 0.4444\nsamples = 3\nvalue = [1, 2]"] ;
584 -> 585 ;
586 [label="gini = 0.0\nsamples = 1\nvalue = [1, 0]"] ;
585 -> 586 ;
587 [label="gini = 0.0\nsamples = 2\nvalue = [0, 2]"] ;
585 -> 587 ;
588 [label="gini = 0.0\nsamples = 50\nvalue = [50, 0]"] ;
584 -> 588 ;
589 [label="gini = 0.0\nsamples = 3\nvalue = [0, 3]"] ;
583 -> 589 ;
590 [label="mfcc - 2 <= 227.7906\ngini = 0.2535\nsamples = 47\nvalue = [7, 40]"] ;
582 -> 590 ;
591 [label="gini = 0.0\nsamples = 37\nvalue = [0, 37]"] ;
590 -> 591 ;
592 [label="chroma_std - 1 <= 0.2718\ngini = 0.42\nsamples = 10\nvalue = [7, 3]"] ;
590 -> 592 ;
593 [label="gini = 0.0\nsamples = 7\nvalue = [7, 0]"] ;
592 -> 593 ;
594 [label="gini = 0.0\nsamples = 3\nvalue = [0, 3]"] ;
592 -> 594 ;
595 [label="chroma - 3 <= 0.0181\ngini = 0.5\nsamples = 249\nvalue = [124, 125]"] ;
525 -> 595 ;
596 [label="mfcc - 2 <= 99.5522\ngini = 0.2107\nsamples = 117\nvalue = [103, 14]"] ;
595 -> 596 ;
597 [label="mfcc - 12 <= 0.5153\ngini = 0.072\nsamples = 107\nvalue = [103, 4]"] ;
596 -> 597 ;
598 [label="mfcc - 14 <= -15.802\ngini = 0.0374\nsamples = 105\nvalue = [103, 2]"] ;
597 -> 598 ;
599 [label="gini = 0.0\nsamples = 1\nvalue = [0, 1]"] ;
598 -> 599 ;
600 [label="mfcc - 23 <= -15.2125\ngini = 0.019\nsamples = 104\nvalue = [103, 1]"] ;
598 -> 600 ;
601 [label="gini = 0.0\nsamples = 1\nvalue = [0, 1]"] ;
600 -> 601 ;
602 [label="gini = 0.0\nsamples = 103\nvalue = [103, 0]"] ;
600 -> 602 ;
603 [label="gini = 0.0\nsamples = 2\nvalue = [0, 2]"] ;
597 -> 603 ;
604 [label="gini = 0.0\nsamples = 10\nvalue = [0, 10]"] ;
596 -> 604 ;
605 [label="mfcc - 10 <= 39.0679\ngini = 0.2676\nsamples = 132\nvalue = [21, 111]"] ;
595 -> 605 ;
606 [label="mfcc - 10 <= -25.48\ngini = 0.1116\nsamples = 118\nvalue = [7, 111]"] ;
605 -> 606 ;
607 [label="gini = 0.0\nsamples = 4\nvalue = [4, 0]"] ;
606 -> 607 ;
608 [label="mfcc - 12 <= -30.2754\ngini = 0.0512\nsamples = 114\nvalue = [3, 111]"] ;
606 -> 608 ;
609 [label="mfcc - 35 <= -13.6795\ngini = 0.4444\nsamples = 3\nvalue = [2, 1]"] ;
608 -> 609 ;
610 [label="gini = 0.0\nsamples = 1\nvalue = [0, 1]"] ;
609 -> 610 ;
611 [label="gini = 0.0\nsamples = 2\nvalue = [2, 0]"] ;
609 -> 611 ;
612 [label="mfcc - 7 <= 91.5905\ngini = 0.0179\nsamples = 111\nvalue = [1, 110]"] ;
608 -> 612 ;
613 [label="gini = 0.0\nsamples = 110\nvalue = [0, 110]"] ;
612 -> 613 ;
614 [label="gini = 0.0\nsamples = 1\nvalue = [1, 0]"] ;
612 -> 614 ;
615 [label="gini = 0.0\nsamples = 14\nvalue = [14, 0]"] ;
605 -> 615 ;
616 [label="pre_attack - 1 <= 2.8482\ngini = 0.4927\nsamples = 612\nvalue = [343, 269]"] ;
524 -> 616 ;
617 [label="chroma - 6 <= 0.1815\ngini = 0.3148\nsamples = 373\nvalue = [300, 73]"] ;
616 -> 617 ;
618 [label="mfcc - 7 <= 30.3245\ngini = 0.4675\nsamples = 51\nvalue = [19, 32]"] ;
617 -> 618 ;
619 [label="mfcc - 9 <= 3.4668\ngini = 0.2509\nsamples = 34\nvalue = [5, 29]"] ;
618 -> 619 ;
620 [label="gini = 0.0\nsamples = 24\nvalue = [0, 24]"] ;
619 -> 620 ;
621 [label="mfcc - 3 <= 172.503\ngini = 0.5\nsamples = 10\nvalue = [5, 5]"] ;
619 -> 621 ;
622 [label="gini = 0.0\nsamples = 5\nvalue = [5, 0]"] ;
621 -> 622 ;
623 [label="gini = 0.0\nsamples = 5\nvalue = [0, 5]"] ;
621 -> 623 ;
624 [label="mfcc - 30 <= 0.4824\ngini = 0.2907\nsamples = 17\nvalue = [14, 3]"] ;
618 -> 624 ;
625 [label="gini = 0.0\nsamples = 13\nvalue = [13, 0]"] ;
624 -> 625 ;
626 [label="chroma_std - 1 <= 0.2147\ngini = 0.375\nsamples = 4\nvalue = [1, 3]"] ;
624 -> 626 ;
627 [label="gini = 0.0\nsamples = 1\nvalue = [1, 0]"] ;
626 -> 627 ;
628 [label="gini = 0.0\nsamples = 3\nvalue = [0, 3]"] ;
626 -> 628 ;
629 [label="mfcc - 21 <= 1.0406\ngini = 0.2222\nsamples = 322\nvalue = [281, 41]"] ;
617 -> 629 ;
630 [label="mfcc - 29 <= -12.6398\ngini = 0.095\nsamples = 220\nvalue = [209, 11]"] ;
629 -> 630 ;
631 [label="mfcc - 23 <= -5.5145\ngini = 0.375\nsamples = 8\nvalue = [2, 6]"] ;
630 -> 631 ;
632 [label="gini = 0.0\nsamples = 2\nvalue = [2, 0]"] ;
631 -> 632 ;
633 [label="gini = 0.0\nsamples = 6\nvalue = [0, 6]"] ;
631 -> 633 ;
634 [label="mfcc - 25 <= 19.1559\ngini = 0.0461\nsamples = 212\nvalue = [207, 5]"] ;
630 -> 634 ;
635 [label="chroma - 5 <= 0.1128\ngini = 0.0283\nsamples = 209\nvalue = [206, 3]"] ;
634 -> 635 ;
636 [label="gini = 0.0\nsamples = 1\nvalue = [0, 1]"] ;
635 -> 636 ;
637 [label="mfcc - 18 <= -31.6218\ngini = 0.019\nsamples = 208\nvalue = [206, 2]"] ;
635 -> 637 ;
638 [label="gini = 0.0\nsamples = 1\nvalue = [0, 1]"] ;
637 -> 638 ;
639 [label="mfcc - 15 <= 39.3666\ngini = 0.0096\nsamples = 207\nvalue = [206, 1]"] ;
637 -> 639 ;
640 [label="gini = 0.0\nsamples = 205\nvalue = [205, 0]"] ;
639 -> 640 ;
641 [label="chroma - 17 <= 0.3008\ngini = 0.5\nsamples = 2\nvalue = [1, 1]"] ;
639 -> 641 ;
642 [label="gini = 0.0\nsamples = 1\nvalue = [1, 0]"] ;
641 -> 642 ;
643 [label="gini = 0.0\nsamples = 1\nvalue = [0, 1]"] ;
641 -> 643 ;
644 [label="pre_attack - 1 <= 2.1923\ngini = 0.4444\nsamples = 3\nvalue = [1, 2]"] ;
634 -> 644 ;
645 [label="gini = 0.0\nsamples = 2\nvalue = [0, 2]"] ;
644 -> 645 ;
646 [label="gini = 0.0\nsamples = 1\nvalue = [1, 0]"] ;
644 -> 646 ;
647 [label="mfcc - 7 <= 17.7953\ngini = 0.4152\nsamples = 102\nvalue = [72, 30]"] ;
629 -> 647 ;
648 [label="mfcc - 0 <= -195.3624\ngini = 0.4688\nsamples = 32\nvalue = [12, 20]"] ;
647 -> 648 ;
649 [label="chroma - 13 <= 0.5368\ngini = 0.32\nsamples = 25\nvalue = [5, 20]"] ;
648 -> 649 ;
650 [label="gini = 0.0\nsamples = 16\nvalue = [0, 16]"] ;
649 -> 650 ;
651 [label="mfcc - 20 <= 10.0961\ngini = 0.4938\nsamples = 9\nvalue = [5, 4]"] ;
649 -> 651 ;
652 [label="gini = 0.0\nsamples = 5\nvalue = [5, 0]"] ;
651 -> 652 ;
653 [label="gini = 0.0\nsamples = 4\nvalue = [0, 4]"] ;
651 -> 653 ;
654 [label="gini = 0.0\nsamples = 7\nvalue = [7, 0]"] ;
648 -> 654 ;
655 [label="mfcc - 15 <= -11.6578\ngini = 0.2449\nsamples = 70\nvalue = [60, 10]"] ;
647 -> 655 ;
656 [label="mfcc - 16 <= 5.7687\ngini = 0.48\nsamples = 10\nvalue = [4, 6]"] ;
655 -> 656 ;
657 [label="gini = 0.0\nsamples = 4\nvalue = [4, 0]"] ;
656 -> 657 ;
658 [label="gini = 0.0\nsamples = 6\nvalue = [0, 6]"] ;
656 -> 658 ;
659 [label="mfcc - 4 <= -106.2089\ngini = 0.1244\nsamples = 60\nvalue = [56, 4]"] ;
655 -> 659 ;
660 [label="mfcc - 32 <= -5.1244\ngini = 0.4444\nsamples = 3\nvalue = [1, 2]"] ;
659 -> 660 ;
661 [label="gini = 0.0\nsamples = 1\nvalue = [1, 0]"] ;
660 -> 661 ;
662 [label="gini = 0.0\nsamples = 2\nvalue = [0, 2]"] ;
660 -> 662 ;
663 [label="spectral_centroid - 0 <= 918.6141\ngini = 0.0677\nsamples = 57\nvalue = [55, 2]"] ;
659 -> 663 ;
664 [label="gini = 0.0\nsamples = 1\nvalue = [0, 1]"] ;
663 -> 664 ;
665 [label="mfcc - 26 <= 18.5257\ngini = 0.0351\nsamples = 56\nvalue = [55, 1]"] ;
663 -> 665 ;
666 [label="gini = 0.0\nsamples = 55\nvalue = [55, 0]"] ;
665 -> 666 ;
667 [label="gini = 0.0\nsamples = 1\nvalue = [0, 1]"] ;
665 -> 667 ;
668 [label="mfcc - 0 <= -90.2223\ngini = 0.2951\nsamples = 239\nvalue = [43, 196]"] ;
616 -> 668 ;
669 [label="pre_attack - 0 <= 1.8018\ngini = 0.1639\nsamples = 211\nvalue = [19, 192]"] ;
668 -> 669 ;
670 [label="chroma - 21 <= 0.1829\ngini = 0.2188\nsamples = 8\nvalue = [7, 1]"] ;
669 -> 670 ;
671 [label="gini = 0.0\nsamples = 1\nvalue = [0, 1]"] ;
670 -> 671 ;
672 [label="gini = 0.0\nsamples = 7\nvalue = [7, 0]"] ;
670 -> 672 ;
673 [label="mfcc - 17 <= -4.6985\ngini = 0.1112\nsamples = 203\nvalue = [12, 191]"] ;
669 -> 673 ;
674 [label="mfcc - 15 <= -1.9735\ngini = 0.4844\nsamples = 17\nvalue = [7, 10]"] ;
673 -> 674 ;
675 [label="chroma - 2 <= 0.0578\ngini = 0.2449\nsamples = 7\nvalue = [6, 1]"] ;
674 -> 675 ;
676 [label="gini = 0.0\nsamples = 1\nvalue = [0, 1]"] ;
675 -> 676 ;
677 [label="gini = 0.0\nsamples = 6\nvalue = [6, 0]"] ;
675 -> 677 ;
678 [label="chroma - 20 <= 0.9187\ngini = 0.18\nsamples = 10\nvalue = [1, 9]"] ;
674 -> 678 ;
679 [label="gini = 0.0\nsamples = 9\nvalue = [0, 9]"] ;
678 -> 679 ;
680 [label="gini = 0.0\nsamples = 1\nvalue = [1, 0]"] ;
678 -> 680 ;
681 [label="mfcc - 7 <= 85.2504\ngini = 0.0523\nsamples = 186\nvalue = [5, 181]"] ;
673 -> 681 ;
682 [label="spectral_centroid - 0 <= 926.3491\ngini = 0.0423\nsamples = 185\nvalue = [4, 181]"] ;
681 -> 682 ;
683 [label="gini = 0.0\nsamples = 1\nvalue = [1, 0]"] ;
682 -> 683 ;
684 [label="mfcc - 3 <= 223.9621\ngini = 0.0321\nsamples = 184\nvalue = [3, 181]"] ;
682 -> 684 ;
685 [label="mfcc - 2 <= 225.9804\ngini = 0.011\nsamples = 180\nvalue = [1, 179]"] ;
684 -> 685 ;
686 [label="gini = 0.0\nsamples = 177\nvalue = [0, 177]"] ;
685 -> 686 ;
687 [label="mfcc - 29 <= -6.7539\ngini = 0.4444\nsamples = 3\nvalue = [1, 2]"] ;
685 -> 687 ;
688 [label="gini = 0.0\nsamples = 1\nvalue = [1, 0]"] ;
687 -> 688 ;
689 [label="gini = 0.0\nsamples = 2\nvalue = [0, 2]"] ;
687 -> 689 ;
690 [label="mfcc - 1 <= -216.1555\ngini = 0.5\nsamples = 4\nvalue = [2, 2]"] ;
684 -> 690 ;
691 [label="gini = 0.0\nsamples = 2\nvalue = [0, 2]"] ;
690 -> 691 ;
692 [label="gini = 0.0\nsamples = 2\nvalue = [2, 0]"] ;
690 -> 692 ;
693 [label="gini = 0.0\nsamples = 1\nvalue = [1, 0]"] ;
681 -> 693 ;
694 [label="chroma - 2 <= 0.2018\ngini = 0.2449\nsamples = 28\nvalue = [24, 4]"] ;
668 -> 694 ;
695 [label="gini = 0.0\nsamples = 3\nvalue = [0, 3]"] ;
694 -> 695 ;
696 [label="spectral_centroid - 1 <= 1562.9513\ngini = 0.0768\nsamples = 25\nvalue = [24, 1]"] ;
694 -> 696 ;
697 [label="gini = 0.0\nsamples = 1\nvalue = [0, 1]"] ;
696 -> 697 ;
698 [label="gini = 0.0\nsamples = 24\nvalue = [24, 0]"] ;
696 -> 698 ;
699 [label="mfcc - 15 <= -3.764\ngini = 0.2757\nsamples = 436\nvalue = [364, 72]"] ;
523 -> 699 ;
700 [label="mfcc - 9 <= -14.5444\ngini = 0.4912\nsamples = 83\nvalue = [36, 47]"] ;
699 -> 700 ;
701 [label="mfcc - 21 <= 8.0771\ngini = 0.1139\nsamples = 33\nvalue = [31, 2]"] ;
700 -> 701 ;
702 [label="gini = 0.0\nsamples = 31\nvalue = [31, 0]"] ;
701 -> 702 ;
703 [label="gini = 0.0\nsamples = 2\nvalue = [0, 2]"] ;
701 -> 703 ;
704 [label="chroma - 14 <= 0.1562\ngini = 0.18\nsamples = 50\nvalue = [5, 45]"] ;
700 -> 704 ;
705 [label="gini = 0.0\nsamples = 44\nvalue = [0, 44]"] ;
704 -> 705 ;
706 [label="mfcc - 29 <= -18.6924\ngini = 0.2778\nsamples = 6\nvalue = [5, 1]"] ;
704 -> 706 ;
707 [label="gini = 0.0\nsamples = 1\nvalue = [0, 1]"] ;
706 -> 707 ;
708 [label="gini = 0.0\nsamples = 5\nvalue = [5, 0]"] ;
706 -> 708 ;
709 [label="mfcc - 5 <= -126.267\ngini = 0.1316\nsamples = 353\nvalue = [328, 25]"] ;
699 -> 709 ;
710 [label="gini = 0.0\nsamples = 9\nvalue = [0, 9]"] ;
709 -> 710 ;
711 [label="mfcc - 7 <= 0.5278\ngini = 0.0887\nsamples = 344\nvalue = [328, 16]"] ;
709 -> 711 ;
712 [label="chroma - 16 <= 0.2915\ngini = 0.42\nsamples = 10\nvalue = [3, 7]"] ;
711 -> 712 ;
713 [label="gini = 0.0\nsamples = 7\nvalue = [0, 7]"] ;
712 -> 713 ;
714 [label="gini = 0.0\nsamples = 3\nvalue = [3, 0]"] ;
712 -> 714 ;
715 [label="mfcc - 27 <= 24.696\ngini = 0.0524\nsamples = 334\nvalue = [325, 9]"] ;
711 -> 715 ;
716 [label="mfcc - 30 <= 25.0268\ngini = 0.0305\nsamples = 323\nvalue = [318, 5]"] ;
715 -> 716 ;
717 [label="mfcc - 14 <= -23.0563\ngini = 0.0186\nsamples = 320\nvalue = [317, 3]"] ;
716 -> 717 ;
718 [label="gini = 0.0\nsamples = 1\nvalue = [0, 1]"] ;
717 -> 718 ;
719 [label="mfcc - 13 <= 34.1965\ngini = 0.0125\nsamples = 319\nvalue = [317, 2]"] ;
717 -> 719 ;
720 [label="mfcc - 1 <= -53.4945\ngini = 0.0063\nsamples = 318\nvalue = [317, 1]"] ;
719 -> 720 ;
721 [label="gini = 0.0\nsamples = 315\nvalue = [315, 0]"] ;
720 -> 721 ;
722 [label="mfcc - 15 <= 14.5608\ngini = 0.4444\nsamples = 3\nvalue = [2, 1]"] ;
720 -> 722 ;
723 [label="gini = 0.0\nsamples = 2\nvalue = [2, 0]"] ;
722 -> 723 ;
724 [label="gini = 0.0\nsamples = 1\nvalue = [0, 1]"] ;
722 -> 724 ;
725 [label="gini = 0.0\nsamples = 1\nvalue = [0, 1]"] ;
719 -> 725 ;
726 [label="chroma - 3 <= 0.1647\ngini = 0.4444\nsamples = 3\nvalue = [1, 2]"] ;
716 -> 726 ;
727 [label="gini = 0.0\nsamples = 2\nvalue = [0, 2]"] ;
726 -> 727 ;
728 [label="gini = 0.0\nsamples = 1\nvalue = [1, 0]"] ;
726 -> 728 ;
729 [label="mfcc - 21 <= 7.0555\ngini = 0.4628\nsamples = 11\nvalue = [7, 4]"] ;
715 -> 729 ;
730 [label="gini = 0.0\nsamples = 4\nvalue = [0, 4]"] ;
729 -> 730 ;
731 [label="gini = 0.0\nsamples = 7\nvalue = [7, 0]"] ;
729 -> 731 ;
732 [label="chroma_avg - 1 <= 0.9179\ngini = 0.2549\nsamples = 8839\nvalue = [7514, 1325]"] ;
0 -> 732 [labeldistance=2.5, labelangle=-45, headlabel="False"] ;
733 [label="chroma - 18 <= 0.127\ngini = 0.2318\nsamples = 8638\nvalue = [7482, 1156]"] ;
732 -> 733 ;
734 [label="pre_attack - 0 <= 3.222\ngini = 0.4802\nsamples = 1236\nvalue = [741, 495]"] ;
733 -> 734 ;
735 [label="mfcc - 8 <= -44.9786\ngini = 0.4141\nsamples = 953\nvalue = [674, 279]"] ;
734 -> 735 ;
736 [label="mfcc - 4 <= 6.099\ngini = 0.3862\nsamples = 153\nvalue = [40, 113]"] ;
735 -> 736 ;
737 [label="mfcc - 23 <= 15.38\ngini = 0.2555\nsamples = 133\nvalue = [20, 113]"] ;
736 -> 737 ;
738 [label="mfcc - 9 <= -18.0115\ngini = 0.0981\nsamples = 116\nvalue = [6, 110]"] ;
737 -> 738 ;
739 [label="spectral_centroid - 0 <= 1370.71\ngini = 0.0517\nsamples = 113\nvalue = [3, 110]"] ;
738 -> 739 ;
740 [label="gini = 0.0\nsamples = 1\nvalue = [1, 0]"] ;
739 -> 740 ;
741 [label="spectral_centroid - 0 <= 6608.7026\ngini = 0.0351\nsamples = 112\nvalue = [2, 110]"] ;
739 -> 741 ;
742 [label="mfcc - 25 <= -40.4551\ngini = 0.0179\nsamples = 111\nvalue = [1, 110]"] ;
741 -> 742 ;
743 [label="gini = 0.0\nsamples = 1\nvalue = [1, 0]"] ;
742 -> 743 ;
744 [label="gini = 0.0\nsamples = 110\nvalue = [0, 110]"] ;
742 -> 744 ;
745 [label="gini = 0.0\nsamples = 1\nvalue = [1, 0]"] ;
741 -> 745 ;
746 [label="gini = 0.0\nsamples = 3\nvalue = [3, 0]"] ;
738 -> 746 ;
747 [label="mfcc - 26 <= 17.2243\ngini = 0.2907\nsamples = 17\nvalue = [14, 3]"] ;
737 -> 747 ;
748 [label="gini = 0.0\nsamples = 14\nvalue = [14, 0]"] ;
747 -> 748 ;
749 [label="gini = 0.0\nsamples = 3\nvalue = [0, 3]"] ;
747 -> 749 ;
750 [label="gini = 0.0\nsamples = 20\nvalue = [20, 0]"] ;
736 -> 750 ;
751 [label="mfcc - 6 <= 9.1292\ngini = 0.3289\nsamples = 800\nvalue = [634, 166]"] ;
735 -> 751 ;
752 [label="mfcc - 25 <= -5.2423\ngini = 0.4778\nsamples = 304\nvalue = [184, 120]"] ;
751 -> 752 ;
753 [label="chroma - 14 <= 0.0126\ngini = 0.173\nsamples = 115\nvalue = [104, 11]"] ;
752 -> 753 ;
754 [label="chroma_std - 1 <= 0.2831\ngini = 0.48\nsamples = 10\nvalue = [4, 6]"] ;
753 -> 754 ;
755 [label="gini = 0.0\nsamples = 4\nvalue = [4, 0]"] ;
754 -> 755 ;
756 [label="gini = 0.0\nsamples = 6\nvalue = [0, 6]"] ;
754 -> 756 ;
757 [label="mfcc - 26 <= 20.3609\ngini = 0.0907\nsamples = 105\nvalue = [100, 5]"] ;
753 -> 757 ;
758 [label="mfcc - 35 <= 11.644\ngini = 0.0566\nsamples = 103\nvalue = [100, 3]"] ;
757 -> 758 ;
759 [label="gini = 0.0\nsamples = 96\nvalue = [96, 0]"] ;
758 -> 759 ;
760 [label="mfcc - 38 <= 7.5337\ngini = 0.4898\nsamples = 7\nvalue = [4, 3]"] ;
758 -> 760 ;
761 [label="gini = 0.0\nsamples = 4\nvalue = [4, 0]"] ;
760 -> 761 ;
762 [label="gini = 0.0\nsamples = 3\nvalue = [0, 3]"] ;
760 -> 762 ;
763 [label="gini = 0.0\nsamples = 2\nvalue = [0, 2]"] ;
757 -> 763 ;
764 [label="mfcc - 20 <= 1.4736\ngini = 0.4882\nsamples = 189\nvalue = [80, 109]"] ;
752 -> 764 ;
765 [label="mfcc - 9 <= -8.8547\ngini = 0.4923\nsamples = 137\nvalue = [77, 60]"] ;
764 -> 765 ;
766 [label="chroma - 3 <= 0.022\ngini = 0.4509\nsamples = 67\nvalue = [23, 44]"] ;
765 -> 766 ;
767 [label="gini = 0.0\nsamples = 12\nvalue = [12, 0]"] ;
766 -> 767 ;
768 [label="mfcc - 4 <= -23.205\ngini = 0.32\nsamples = 55\nvalue = [11, 44]"] ;
766 -> 768 ;
769 [label="mfcc - 24 <= -16.3818\ngini = 0.1388\nsamples = 40\nvalue = [3, 37]"] ;
768 -> 769 ;
770 [label="gini = 0.0\nsamples = 3\nvalue = [3, 0]"] ;
769 -> 770 ;
771 [label="gini = 0.0\nsamples = 37\nvalue = [0, 37]"] ;
769 -> 771 ;
772 [label="mfcc - 33 <= -8.4184\ngini = 0.4978\nsamples = 15\nvalue = [8, 7]"] ;
768 -> 772 ;
773 [label="gini = 0.0\nsamples = 6\nvalue = [6, 0]"] ;
772 -> 773 ;
774 [label="mfcc - 21 <= -19.5611\ngini = 0.3457\nsamples = 9\nvalue = [2, 7]"] ;
772 -> 774 ;
775 [label="gini = 0.0\nsamples = 2\nvalue = [2, 0]"] ;
774 -> 775 ;
776 [label="gini = 0.0\nsamples = 7\nvalue = [0, 7]"] ;
774 -> 776 ;
777 [label="mfcc - 22 <= 19.7974\ngini = 0.3527\nsamples = 70\nvalue = [54, 16]"] ;
765 -> 777 ;
778 [label="mfcc - 17 <= 26.7264\ngini = 0.2812\nsamples = 65\nvalue = [54, 11]"] ;
777 -> 778 ;
779 [label="mfcc - 0 <= -275.4376\ngini = 0.2248\nsamples = 62\nvalue = [54, 8]"] ;
778 -> 779 ;
780 [label="mfcc - 28 <= -14.0873\ngini = 0.1576\nsamples = 58\nvalue = [53, 5]"] ;
779 -> 780 ;
781 [label="mfcc - 20 <= -3.9955\ngini = 0.4444\nsamples = 3\nvalue = [1, 2]"] ;
780 -> 781 ;
782 [label="gini = 0.0\nsamples = 1\nvalue = [1, 0]"] ;
781 -> 782 ;
783 [label="gini = 0.0\nsamples = 2\nvalue = [0, 2]"] ;
781 -> 783 ;
784 [label="mfcc - 38 <= -15.2974\ngini = 0.1031\nsamples = 55\nvalue = [52, 3]"] ;
780 -> 784 ;
785 [label="chroma - 11 <= 0.4308\ngini = 0.4444\nsamples = 3\nvalue = [1, 2]"] ;
784 -> 785 ;
786 [label="gini = 0.0\nsamples = 2\nvalue = [0, 2]"] ;
785 -> 786 ;
787 [label="gini = 0.0\nsamples = 1\nvalue = [1, 0]"] ;
785 -> 787 ;
788 [label="pre_attack - 1 <= 0.0713\ngini = 0.0377\nsamples = 52\nvalue = [51, 1]"] ;
784 -> 788 ;
789 [label="gini = 0.0\nsamples = 1\nvalue = [0, 1]"] ;
788 -> 789 ;
790 [label="gini = 0.0\nsamples = 51\nvalue = [51, 0]"] ;
788 -> 790 ;
791 [label="mfcc - 30 <= 5.0361\ngini = 0.375\nsamples = 4\nvalue = [1, 3]"] ;
779 -> 791 ;
792 [label="gini = 0.0\nsamples = 3\nvalue = [0, 3]"] ;
791 -> 792 ;
793 [label="gini = 0.0\nsamples = 1\nvalue = [1, 0]"] ;
791 -> 793 ;
794 [label="gini = 0.0\nsamples = 3\nvalue = [0, 3]"] ;
778 -> 794 ;
795 [label="gini = 0.0\nsamples = 5\nvalue = [0, 5]"] ;
777 -> 795 ;
796 [label="chroma - 10 <= 0.0287\ngini = 0.1087\nsamples = 52\nvalue = [3, 49]"] ;
764 -> 796 ;
797 [label="chroma - 19 <= 0.3586\ngini = 0.4444\nsamples = 3\nvalue = [2, 1]"] ;
796 -> 797 ;
798 [label="gini = 0.0\nsamples = 2\nvalue = [2, 0]"] ;
797 -> 798 ;
799 [label="gini = 0.0\nsamples = 1\nvalue = [0, 1]"] ;
797 -> 799 ;
800 [label="mfcc - 0 <= -568.5551\ngini = 0.04\nsamples = 49\nvalue = [1, 48]"] ;
796 -> 800 ;
801 [label="gini = 0.0\nsamples = 1\nvalue = [1, 0]"] ;
800 -> 801 ;
802 [label="gini = 0.0\nsamples = 48\nvalue = [0, 48]"] ;
800 -> 802 ;
803 [label="mfcc - 17 <= -17.1269\ngini = 0.1683\nsamples = 496\nvalue = [450, 46]"] ;
751 -> 803 ;
804 [label="mfcc - 14 <= -4.0993\ngini = 0.4835\nsamples = 66\nvalue = [39, 27]"] ;
803 -> 804 ;
805 [label="mfcc - 13 <= -6.349\ngini = 0.3673\nsamples = 33\nvalue = [8, 25]"] ;
804 -> 805 ;
806 [label="mfcc - 11 <= -11.4844\ngini = 0.1913\nsamples = 28\nvalue = [3, 25]"] ;
805 -> 806 ;
807 [label="chroma - 19 <= 0.012\ngini = 0.375\nsamples = 4\nvalue = [3, 1]"] ;
806 -> 807 ;
808 [label="gini = 0.0\nsamples = 1\nvalue = [0, 1]"] ;
807 -> 808 ;
809 [label="gini = 0.0\nsamples = 3\nvalue = [3, 0]"] ;
807 -> 809 ;
810 [label="gini = 0.0\nsamples = 24\nvalue = [0, 24]"] ;
806 -> 810 ;
811 [label="gini = 0.0\nsamples = 5\nvalue = [5, 0]"] ;
805 -> 811 ;
812 [label="chroma_avg - 0 <= 0.1701\ngini = 0.1139\nsamples = 33\nvalue = [31, 2]"] ;
804 -> 812 ;
813 [label="chroma - 17 <= 0.0158\ngini = 0.4444\nsamples = 3\nvalue = [1, 2]"] ;
812 -> 813 ;
814 [label="gini = 0.0\nsamples = 1\nvalue = [1, 0]"] ;
813 -> 814 ;
815 [label="gini = 0.0\nsamples = 2\nvalue = [0, 2]"] ;
813 -> 815 ;
816 [label="gini = 0.0\nsamples = 30\nvalue = [30, 0]"] ;
812 -> 816 ;
817 [label="chroma - 20 <= 0.3956\ngini = 0.0845\nsamples = 430\nvalue = [411, 19]"] ;
803 -> 817 ;
818 [label="mfcc - 27 <= 28.8634\ngini = 0.0765\nsamples = 427\nvalue = [410, 17]"] ;
817 -> 818 ;
819 [label="chroma - 10 <= 0.0019\ngini = 0.0683\nsamples = 424\nvalue = [409, 15]"] ;
818 -> 819 ;
820 [label="gini = 0.0\nsamples = 1\nvalue = [0, 1]"] ;
819 -> 820 ;
821 [label="pre_attack - 1 <= 5.494\ngini = 0.064\nsamples = 423\nvalue = [409, 14]"] ;
819 -> 821 ;
822 [label="mfcc - 11 <= -43.9839\ngini = 0.0597\nsamples = 422\nvalue = [409, 13]"] ;
821 -> 822 ;
823 [label="gini = 0.0\nsamples = 1\nvalue = [0, 1]"] ;
822 -> 823 ;
824 [label="mfcc - 14 <= -32.3671\ngini = 0.0554\nsamples = 421\nvalue = [409, 12]"] ;
822 -> 824 ;
825 [label="gini = 0.0\nsamples = 1\nvalue = [0, 1]"] ;
824 -> 825 ;
826 [label="chroma_std - 1 <= 0.3413\ngini = 0.051\nsamples = 420\nvalue = [409, 11]"] ;
824 -> 826 ;
827 [label="mfcc - 22 <= 38.7954\ngini = 0.0344\nsamples = 400\nvalue = [393, 7]"] ;
826 -> 827 ;
828 [label="gini = 0.0298\nsamples = 397\nvalue = [391, 6]"] ;
827 -> 828 ;
829 [label="gini = 0.4444\nsamples = 3\nvalue = [2, 1]"] ;
827 -> 829 ;
830 [label="pre_attack - 0 <= 1.6657\ngini = 0.32\nsamples = 20\nvalue = [16, 4]"] ;
826 -> 830 ;
831 [label="gini = 0.1172\nsamples = 16\nvalue = [15, 1]"] ;
830 -> 831 ;
832 [label="gini = 0.375\nsamples = 4\nvalue = [1, 3]"] ;
830 -> 832 ;
833 [label="gini = 0.0\nsamples = 1\nvalue = [0, 1]"] ;
821 -> 833 ;
834 [label="mfcc - 38 <= -2.7019\ngini = 0.4444\nsamples = 3\nvalue = [1, 2]"] ;
818 -> 834 ;
835 [label="gini = 0.0\nsamples = 2\nvalue = [0, 2]"] ;
834 -> 835 ;
836 [label="gini = 0.0\nsamples = 1\nvalue = [1, 0]"] ;
834 -> 836 ;
837 [label="mfcc - 0 <= -522.9895\ngini = 0.4444\nsamples = 3\nvalue = [1, 2]"] ;
817 -> 837 ;
838 [label="gini = 0.0\nsamples = 1\nvalue = [1, 0]"] ;
837 -> 838 ;
839 [label="gini = 0.0\nsamples = 2\nvalue = [0, 2]"] ;
837 -> 839 ;
840 [label="spectral_centroid - 0 <= 2192.9409\ngini = 0.3614\nsamples = 283\nvalue = [67, 216]"] ;
734 -> 840 ;
841 [label="mfcc - 21 <= -30.1706\ngini = 0.1822\nsamples = 217\nvalue = [22, 195]"] ;
840 -> 841 ;
842 [label="gini = 0.0\nsamples = 5\nvalue = [5, 0]"] ;
841 -> 842 ;
843 [label="chroma - 20 <= 0.3784\ngini = 0.1475\nsamples = 212\nvalue = [17, 195]"] ;
841 -> 843 ;
844 [label="mfcc - 22 <= 27.3527\ngini = 0.0941\nsamples = 202\nvalue = [10, 192]"] ;
843 -> 844 ;
845 [label="chroma_avg - 0 <= 0.4194\ngini = 0.0679\nsamples = 199\nvalue = [7, 192]"] ;
844 -> 845 ;
846 [label="spectral_centroid - 1 <= 2796.5044\ngini = 0.0406\nsamples = 193\nvalue = [4, 189]"] ;
845 -> 846 ;
847 [label="mfcc - 13 <= 31.3719\ngini = 0.0308\nsamples = 192\nvalue = [3, 189]"] ;
846 -> 847 ;
848 [label="mfcc - 18 <= -35.1617\ngini = 0.0207\nsamples = 191\nvalue = [2, 189]"] ;
847 -> 848 ;
849 [label="gini = 0.0\nsamples = 1\nvalue = [1, 0]"] ;
848 -> 849 ;
850 [label="chroma_std - 0 <= 0.2708\ngini = 0.0105\nsamples = 190\nvalue = [1, 189]"] ;
848 -> 850 ;
851 [label="chroma - 9 <= 0.9302\ngini = 0.1653\nsamples = 11\nvalue = [1, 10]"] ;
850 -> 851 ;
852 [label="gini = 0.0\nsamples = 10\nvalue = [0, 10]"] ;
851 -> 852 ;
853 [label="gini = 0.0\nsamples = 1\nvalue = [1, 0]"] ;
851 -> 853 ;
854 [label="gini = 0.0\nsamples = 179\nvalue = [0, 179]"] ;
850 -> 854 ;
855 [label="gini = 0.0\nsamples = 1\nvalue = [1, 0]"] ;
847 -> 855 ;
856 [label="gini = 0.0\nsamples = 1\nvalue = [1, 0]"] ;
846 -> 856 ;
857 [label="mfcc - 7 <= 3.0949\ngini = 0.5\nsamples = 6\nvalue = [3, 3]"] ;
845 -> 857 ;
858 [label="gini = 0.0\nsamples = 3\nvalue = [0, 3]"] ;
857 -> 858 ;
859 [label="gini = 0.0\nsamples = 3\nvalue = [3, 0]"] ;
857 -> 859 ;
860 [label="gini = 0.0\nsamples = 3\nvalue = [3, 0]"] ;
844 -> 860 ;
861 [label="mfcc - 23 <= -7.4739\ngini = 0.42\nsamples = 10\nvalue = [7, 3]"] ;
843 -> 861 ;
862 [label="gini = 0.0\nsamples = 3\nvalue = [0, 3]"] ;
861 -> 862 ;
863 [label="gini = 0.0\nsamples = 7\nvalue = [7, 0]"] ;
861 -> 863 ;
864 [label="mfcc - 4 <= -45.2109\ngini = 0.4339\nsamples = 66\nvalue = [45, 21]"] ;
840 -> 864 ;
865 [label="mfcc - 33 <= 4.6176\ngini = 0.3878\nsamples = 19\nvalue = [5, 14]"] ;
864 -> 865 ;
866 [label="mfcc - 15 <= -22.3735\ngini = 0.1327\nsamples = 14\nvalue = [1, 13]"] ;
865 -> 866 ;
867 [label="gini = 0.0\nsamples = 1\nvalue = [1, 0]"] ;
866 -> 867 ;
868 [label="gini = 0.0\nsamples = 13\nvalue = [0, 13]"] ;
866 -> 868 ;
869 [label="mfcc - 14 <= 25.1523\ngini = 0.32\nsamples = 5\nvalue = [4, 1]"] ;
865 -> 869 ;
870 [label="gini = 0.0\nsamples = 4\nvalue = [4, 0]"] ;
869 -> 870 ;
871 [label="gini = 0.0\nsamples = 1\nvalue = [0, 1]"] ;
869 -> 871 ;
872 [label="chroma_avg - 1 <= 0.356\ngini = 0.2535\nsamples = 47\nvalue = [40, 7]"] ;
864 -> 872 ;
873 [label="chroma - 16 <= 0.634\ngini = 0.095\nsamples = 40\nvalue = [38, 2]"] ;
872 -> 873 ;
874 [label="chroma - 20 <= 0.5894\ngini = 0.05\nsamples = 39\nvalue = [38, 1]"] ;
873 -> 874 ;
875 [label="gini = 0.0\nsamples = 38\nvalue = [38, 0]"] ;
874 -> 875 ;
876 [label="gini = 0.0\nsamples = 1\nvalue = [0, 1]"] ;
874 -> 876 ;
877 [label="gini = 0.0\nsamples = 1\nvalue = [0, 1]"] ;
873 -> 877 ;
878 [label="mfcc - 1 <= -156.1912\ngini = 0.4082\nsamples = 7\nvalue = [2, 5]"] ;
872 -> 878 ;
879 [label="gini = 0.0\nsamples = 2\nvalue = [2, 0]"] ;
878 -> 879 ;
880 [label="gini = 0.0\nsamples = 5\nvalue = [0, 5]"] ;
878 -> 880 ;
881 [label="mfcc - 4 <= -45.4201\ngini = 0.1627\nsamples = 7402\nvalue = [6741, 661]"] ;
733 -> 881 ;
882 [label="mfcc - 6 <= 10.704\ngini = 0.4544\nsamples = 384\nvalue = [250, 134]"] ;
881 -> 882 ;
883 [label="mfcc - 8 <= -5.8201\ngini = 0.495\nsamples = 220\nvalue = [99, 121]"] ;
882 -> 883 ;
884 [label="mfcc - 37 <= -0.5336\ngini = 0.3694\nsamples = 135\nvalue = [33, 102]"] ;
883 -> 884 ;
885 [label="spectral_centroid - 1 <= 2319.5332\ngini = 0.4962\nsamples = 57\nvalue = [26, 31]"] ;
884 -> 885 ;
886 [label="mfcc - 24 <= -11.2023\ngini = 0.2688\nsamples = 25\nvalue = [4, 21]"] ;
885 -> 886 ;
887 [label="gini = 0.0\nsamples = 3\nvalue = [3, 0]"] ;
886 -> 887 ;
888 [label="mfcc - 37 <= -13.78\ngini = 0.0868\nsamples = 22\nvalue = [1, 21]"] ;
886 -> 888 ;
889 [label="gini = 0.0\nsamples = 1\nvalue = [1, 0]"] ;
888 -> 889 ;
890 [label="gini = 0.0\nsamples = 21\nvalue = [0, 21]"] ;
888 -> 890 ;
891 [label="spectral_centroid - 0 <= 3301.6475\ngini = 0.4297\nsamples = 32\nvalue = [22, 10]"] ;
885 -> 891 ;
892 [label="mfcc - 25 <= 13.4364\ngini = 0.18\nsamples = 20\nvalue = [18, 2]"] ;
891 -> 892 ;
893 [label="chroma_std - 0 <= 0.2007\ngini = 0.0997\nsamples = 19\nvalue = [18, 1]"] ;
892 -> 893 ;
894 [label="gini = 0.0\nsamples = 1\nvalue = [0, 1]"] ;
893 -> 894 ;
895 [label="gini = 0.0\nsamples = 18\nvalue = [18, 0]"] ;
893 -> 895 ;
896 [label="gini = 0.0\nsamples = 1\nvalue = [0, 1]"] ;
892 -> 896 ;
897 [label="mfcc - 28 <= -6.6899\ngini = 0.4444\nsamples = 12\nvalue = [4, 8]"] ;
891 -> 897 ;
898 [label="gini = 0.0\nsamples = 8\nvalue = [0, 8]"] ;
897 -> 898 ;
899 [label="gini = 0.0\nsamples = 4\nvalue = [4, 0]"] ;
897 -> 899 ;
900 [label="mfcc - 14 <= 27.3915\ngini = 0.1634\nsamples = 78\nvalue = [7, 71]"] ;
884 -> 900 ;
901 [label="mfcc - 24 <= -19.1229\ngini = 0.1023\nsamples = 74\nvalue = [4, 70]"] ;
900 -> 901 ;
902 [label="chroma - 11 <= 0.1806\ngini = 0.4444\nsamples = 3\nvalue = [2, 1]"] ;
901 -> 902 ;
903 [label="gini = 0.0\nsamples = 2\nvalue = [2, 0]"] ;
902 -> 903 ;
904 [label="gini = 0.0\nsamples = 1\nvalue = [0, 1]"] ;
902 -> 904 ;
905 [label="mfcc - 35 <= 23.5315\ngini = 0.0548\nsamples = 71\nvalue = [2, 69]"] ;
901 -> 905 ;
906 [label="chroma_std - 1 <= 0.353\ngini = 0.0282\nsamples = 70\nvalue = [1, 69]"] ;
905 -> 906 ;
907 [label="gini = 0.0\nsamples = 69\nvalue = [0, 69]"] ;
906 -> 907 ;
908 [label="gini = 0.0\nsamples = 1\nvalue = [1, 0]"] ;
906 -> 908 ;
909 [label="gini = 0.0\nsamples = 1\nvalue = [1, 0]"] ;
905 -> 909 ;
910 [label="mfcc - 13 <= 16.4139\ngini = 0.375\nsamples = 4\nvalue = [3, 1]"] ;
900 -> 910 ;
911 [label="gini = 0.0\nsamples = 3\nvalue = [3, 0]"] ;
910 -> 911 ;
912 [label="gini = 0.0\nsamples = 1\nvalue = [0, 1]"] ;
910 -> 912 ;
913 [label="mfcc - 4 <= -67.0805\ngini = 0.3471\nsamples = 85\nvalue = [66, 19]"] ;
883 -> 913 ;
914 [label="mfcc - 17 <= -17.964\ngini = 0.1528\nsamples = 12\nvalue = [1, 11]"] ;
913 -> 914 ;
915 [label="gini = 0.0\nsamples = 1\nvalue = [1, 0]"] ;
914 -> 915 ;
916 [label="gini = 0.0\nsamples = 11\nvalue = [0, 11]"] ;
914 -> 916 ;
917 [label="pre_attack - 0 <= 0.1371\ngini = 0.1952\nsamples = 73\nvalue = [65, 8]"] ;
913 -> 917 ;
918 [label="mfcc - 22 <= -3.1076\ngini = 0.4938\nsamples = 9\nvalue = [4, 5]"] ;
917 -> 918 ;
919 [label="gini = 0.0\nsamples = 5\nvalue = [0, 5]"] ;
918 -> 919 ;
920 [label="gini = 0.0\nsamples = 4\nvalue = [4, 0]"] ;
918 -> 920 ;
921 [label="mfcc - 12 <= -29.0022\ngini = 0.0894\nsamples = 64\nvalue = [61, 3]"] ;
917 -> 921 ;
922 [label="spectral_centroid - 1 <= 1477.1639\ngini = 0.375\nsamples = 4\nvalue = [1, 3]"] ;
921 -> 922 ;
923 [label="gini = 0.0\nsamples = 1\nvalue = [1, 0]"] ;
922 -> 923 ;
924 [label="gini = 0.0\nsamples = 3\nvalue = [0, 3]"] ;
922 -> 924 ;
925 [label="gini = 0.0\nsamples = 60\nvalue = [60, 0]"] ;
921 -> 925 ;
926 [label="pre_attack - 0 <= 4.9671\ngini = 0.146\nsamples = 164\nvalue = [151, 13]"] ;
882 -> 926 ;
927 [label="chroma - 2 <= 0.0524\ngini = 0.0961\nsamples = 158\nvalue = [150, 8]"] ;
926 -> 927 ;
928 [label="chroma - 9 <= 0.1918\ngini = 0.4861\nsamples = 12\nvalue = [7, 5]"] ;
927 -> 928 ;
929 [label="gini = 0.0\nsamples = 7\nvalue = [7, 0]"] ;
928 -> 929 ;
930 [label="gini = 0.0\nsamples = 5\nvalue = [0, 5]"] ;
928 -> 930 ;
931 [label="chroma_avg - 1 <= 0.8885\ngini = 0.0403\nsamples = 146\nvalue = [143, 3]"] ;
927 -> 931 ;
932 [label="spectral_centroid - 1 <= 926.943\ngini = 0.0272\nsamples = 145\nvalue = [143, 2]"] ;
931 -> 932 ;
933 [label="gini = 0.0\nsamples = 1\nvalue = [0, 1]"] ;
932 -> 933 ;
934 [label="mfcc - 17 <= 16.4958\ngini = 0.0138\nsamples = 144\nvalue = [143, 1]"] ;
932 -> 934 ;
935 [label="gini = 0.0\nsamples = 140\nvalue = [140, 0]"] ;
934 -> 935 ;
936 [label="mfcc - 28 <= -0.5091\ngini = 0.375\nsamples = 4\nvalue = [3, 1]"] ;
934 -> 936 ;
937 [label="gini = 0.0\nsamples = 1\nvalue = [0, 1]"] ;
936 -> 937 ;
938 [label="gini = 0.0\nsamples = 3\nvalue = [3, 0]"] ;
936 -> 938 ;
939 [label="gini = 0.0\nsamples = 1\nvalue = [0, 1]"] ;
931 -> 939 ;
940 [label="pre_attack - 1 <= 1.8881\ngini = 0.2778\nsamples = 6\nvalue = [1, 5]"] ;
926 -> 940 ;
941 [label="gini = 0.0\nsamples = 1\nvalue = [1, 0]"] ;
940 -> 941 ;
942 [label="gini = 0.0\nsamples = 5\nvalue = [0, 5]"] ;
940 -> 942 ;
943 [label="mfcc - 0 <= -680.0341\ngini = 0.1389\nsamples = 7018\nvalue = [6491, 527]"] ;
881 -> 943 ;
944 [label="mfcc - 2 <= 186.0596\ngini = 0.4988\nsamples = 120\nvalue = [57, 63]"] ;
943 -> 944 ;
945 [label="mfcc - 7 <= 27.3415\ngini = 0.4553\nsamples = 97\nvalue = [34, 63]"] ;
944 -> 945 ;
946 [label="spectral_centroid - 1 <= 2503.7393\ngini = 0.2293\nsamples = 53\nvalue = [7, 46]"] ;
945 -> 946 ;
947 [label="mfcc - 14 <= 0.6692\ngini = 0.115\nsamples = 49\nvalue = [3, 46]"] ;
946 -> 947 ;
948 [label="mfcc - 1 <= -491.262\ngini = 0.5\nsamples = 6\nvalue = [3, 3]"] ;
947 -> 948 ;
949 [label="gini = 0.0\nsamples = 3\nvalue = [3, 0]"] ;
948 -> 949 ;
950 [label="gini = 0.0\nsamples = 3\nvalue = [0, 3]"] ;
948 -> 950 ;
951 [label="gini = 0.0\nsamples = 43\nvalue = [0, 43]"] ;
947 -> 951 ;
952 [label="gini = 0.0\nsamples = 4\nvalue = [4, 0]"] ;
946 -> 952 ;
953 [label="mfcc - 18 <= 9.7726\ngini = 0.4742\nsamples = 44\nvalue = [27, 17]"] ;
945 -> 953 ;
954 [label="mfcc - 9 <= 20.514\ngini = 0.4234\nsamples = 23\nvalue = [7, 16]"] ;
953 -> 954 ;
955 [label="mfcc - 5 <= -23.0265\ngini = 0.3457\nsamples = 9\nvalue = [7, 2]"] ;
954 -> 955 ;
956 [label="gini = 0.0\nsamples = 2\nvalue = [0, 2]"] ;
955 -> 956 ;
957 [label="gini = 0.0\nsamples = 7\nvalue = [7, 0]"] ;
955 -> 957 ;
958 [label="gini = 0.0\nsamples = 14\nvalue = [0, 14]"] ;
954 -> 958 ;
959 [label="mfcc - 25 <= 3.0931\ngini = 0.0907\nsamples = 21\nvalue = [20, 1]"] ;
953 -> 959 ;
960 [label="gini = 0.0\nsamples = 1\nvalue = [0, 1]"] ;
959 -> 960 ;
961 [label="gini = 0.0\nsamples = 20\nvalue = [20, 0]"] ;
959 -> 961 ;
962 [label="gini = 0.0\nsamples = 23\nvalue = [23, 0]"] ;
944 -> 962 ;
963 [label="chroma - 19 <= 0.0929\ngini = 0.1255\nsamples = 6898\nvalue = [6434, 464]"] ;
943 -> 963 ;
964 [label="mfcc - 5 <= 4.2256\ngini = 0.4427\nsamples = 260\nvalue = [174, 86]"] ;
963 -> 964 ;
965 [label="mfcc - 8 <= -40.6541\ngini = 0.4998\nsamples = 165\nvalue = [84, 81]"] ;
964 -> 965 ;
966 [label="mfcc - 31 <= -10.5677\ngini = 0.0605\nsamples = 32\nvalue = [1, 31]"] ;
965 -> 966 ;
967 [label="gini = 0.0\nsamples = 1\nvalue = [1, 0]"] ;
966 -> 967 ;
968 [label="gini = 0.0\nsamples = 31\nvalue = [0, 31]"] ;
966 -> 968 ;
969 [label="mfcc - 15 <= -6.1231\ngini = 0.4692\nsamples = 133\nvalue = [83, 50]"] ;
965 -> 969 ;
970 [label="mfcc - 27 <= -0.1424\ngini = 0.42\nsamples = 40\nvalue = [12, 28]"] ;
969 -> 970 ;
971 [label="gini = 0.0\nsamples = 8\nvalue = [8, 0]"] ;
970 -> 971 ;
972 [label="mfcc - 34 <= -1.0354\ngini = 0.2188\nsamples = 32\nvalue = [4, 28]"] ;
970 -> 972 ;
973 [label="chroma_avg - 1 <= 0.2265\ngini = 0.4444\nsamples = 6\nvalue = [4, 2]"] ;
972 -> 973 ;
974 [label="gini = 0.0\nsamples = 4\nvalue = [4, 0]"] ;
973 -> 974 ;
975 [label="gini = 0.0\nsamples = 2\nvalue = [0, 2]"] ;
973 -> 975 ;
976 [label="gini = 0.0\nsamples = 26\nvalue = [0, 26]"] ;
972 -> 976 ;
977 [label="mfcc - 7 <= 19.7782\ngini = 0.3612\nsamples = 93\nvalue = [71, 22]"] ;
969 -> 977 ;
978 [label="mfcc - 20 <= -3.6376\ngini = 0.499\nsamples = 44\nvalue = [23, 21]"] ;
977 -> 978 ;
979 [label="chroma - 18 <= 0.3679\ngini = 0.3512\nsamples = 22\nvalue = [17, 5]"] ;
978 -> 979 ;
980 [label="mfcc - 19 <= -27.0723\ngini = 0.1884\nsamples = 19\nvalue = [17, 2]"] ;
979 -> 980 ;
981 [label="gini = 0.0\nsamples = 2\nvalue = [0, 2]"] ;
980 -> 981 ;
982 [label="gini = 0.0\nsamples = 17\nvalue = [17, 0]"] ;
980 -> 982 ;
983 [label="gini = 0.0\nsamples = 3\nvalue = [0, 3]"] ;
979 -> 983 ;
984 [label="chroma - 21 <= 0.2844\ngini = 0.3967\nsamples = 22\nvalue = [6, 16]"] ;
978 -> 984 ;
985 [label="mfcc - 36 <= -4.179\ngini = 0.2659\nsamples = 19\nvalue = [3, 16]"] ;
984 -> 985 ;
986 [label="mfcc - 3 <= 125.8894\ngini = 0.375\nsamples = 4\nvalue = [3, 1]"] ;
985 -> 986 ;
987 [label="gini = 0.0\nsamples = 1\nvalue = [0, 1]"] ;
986 -> 987 ;
988 [label="gini = 0.0\nsamples = 3\nvalue = [3, 0]"] ;
986 -> 988 ;
989 [label="gini = 0.0\nsamples = 15\nvalue = [0, 15]"] ;
985 -> 989 ;
990 [label="gini = 0.0\nsamples = 3\nvalue = [3, 0]"] ;
984 -> 990 ;
991 [label="mfcc - 11 <= -24.8823\ngini = 0.04\nsamples = 49\nvalue = [48, 1]"] ;
977 -> 991 ;
992 [label="gini = 0.0\nsamples = 1\nvalue = [0, 1]"] ;
991 -> 992 ;
993 [label="gini = 0.0\nsamples = 48\nvalue = [48, 0]"] ;
991 -> 993 ;
994 [label="mfcc - 15 <= -18.7196\ngini = 0.0997\nsamples = 95\nvalue = [90, 5]"] ;
964 -> 994 ;
995 [label="gini = 0.0\nsamples = 2\nvalue = [0, 2]"] ;
994 -> 995 ;
996 [label="mfcc - 3 <= 12.1268\ngini = 0.0624\nsamples = 93\nvalue = [90, 3]"] ;
994 -> 996 ;
997 [label="gini = 0.0\nsamples = 1\nvalue = [0, 1]"] ;
996 -> 997 ;
998 [label="mfcc - 29 <= 16.3154\ngini = 0.0425\nsamples = 92\nvalue = [90, 2]"] ;
996 -> 998 ;
999 [label="mfcc - 16 <= 23.6389\ngini = 0.022\nsamples = 90\nvalue = [89, 1]"] ;
998 -> 999 ;
1000 [label="gini = 0.0\nsamples = 87\nvalue = [87, 0]"] ;
999 -> 1000 ;
1001 [label="mfcc - 19 <= -18.3226\ngini = 0.4444\nsamples = 3\nvalue = [2, 1]"] ;
999 -> 1001 ;
1002 [label="gini = 0.0\nsamples = 1\nvalue = [0, 1]"] ;
1001 -> 1002 ;
1003 [label="gini = 0.0\nsamples = 2\nvalue = [2, 0]"] ;
1001 -> 1003 ;
1004 [label="mfcc - 28 <= -2.6284\ngini = 0.5\nsamples = 2\nvalue = [1, 1]"] ;
998 -> 1004 ;
1005 [label="gini = 0.0\nsamples = 1\nvalue = [1, 0]"] ;
1004 -> 1005 ;
1006 [label="gini = 0.0\nsamples = 1\nvalue = [0, 1]"] ;
1004 -> 1006 ;
1007 [label="mfcc - 31 <= 18.7502\ngini = 0.1074\nsamples = 6638\nvalue = [6260, 378]"] ;
963 -> 1007 ;
1008 [label="mfcc - 4 <= -15.7711\ngini = 0.0968\nsamples = 6526\nvalue = [6193, 333]"] ;
1007 -> 1008 ;
1009 [label="mfcc - 25 <= 9.1484\ngini = 0.1952\nsamples = 1770\nvalue = [1576, 194]"] ;
1008 -> 1009 ;
1010 [label="mfcc - 17 <= 22.1385\ngini = 0.144\nsamples = 1575\nvalue = [1452, 123]"] ;
1009 -> 1010 ;
1011 [label="mfcc - 21 <= 22.2007\ngini = 0.1244\nsamples = 1545\nvalue = [1442, 103]"] ;
1010 -> 1011 ;
1012 [label="mfcc - 9 <= -30.9225\ngini = 0.1072\nsamples = 1513\nvalue = [1427, 86]"] ;
1011 -> 1012 ;
1013 [label="spectral_centroid - 0 <= 1696.4473\ngini = 0.2964\nsamples = 199\nvalue = [163, 36]"] ;
1012 -> 1013 ;
1014 [label="mfcc - 24 <= -2.1268\ngini = 0.0855\nsamples = 134\nvalue = [128, 6]"] ;
1013 -> 1014 ;
1015 [label="chroma - 4 <= 0.5241\ngini = 0.0305\nsamples = 129\nvalue = [127, 2]"] ;
1014 -> 1015 ;
1016 [label="gini = 0.0155\nsamples = 128\nvalue = [127, 1]"] ;
1015 -> 1016 ;
1017 [label="gini = 0.0\nsamples = 1\nvalue = [0, 1]"] ;
1015 -> 1017 ;
1018 [label="mfcc - 19 <= 3.3982\ngini = 0.32\nsamples = 5\nvalue = [1, 4]"] ;
1014 -> 1018 ;
1019 [label="gini = 0.0\nsamples = 1\nvalue = [1, 0]"] ;
1018 -> 1019 ;
1020 [label="gini = 0.0\nsamples = 4\nvalue = [0, 4]"] ;
1018 -> 1020 ;
1021 [label="chroma - 13 <= 0.2539\ngini = 0.497\nsamples = 65\nvalue = [35, 30]"] ;
1013 -> 1021 ;
1022 [label="mfcc - 19 <= -23.2298\ngini = 0.18\nsamples = 20\nvalue = [2, 18]"] ;
1021 -> 1022 ;
1023 [label="gini = 0.0\nsamples = 1\nvalue = [1, 0]"] ;
1022 -> 1023 ;
1024 [label="gini = 0.0997\nsamples = 19\nvalue = [1, 18]"] ;
1022 -> 1024 ;
1025 [label="chroma - 5 <= 0.1215\ngini = 0.3911\nsamples = 45\nvalue = [33, 12]"] ;
1021 -> 1025 ;
1026 [label="gini = 0.0\nsamples = 6\nvalue = [0, 6]"] ;
1025 -> 1026 ;
1027 [label="gini = 0.2604\nsamples = 39\nvalue = [33, 6]"] ;
1025 -> 1027 ;
1028 [label="pre_attack - 0 <= 0.0415\ngini = 0.0732\nsamples = 1314\nvalue = [1264, 50]"] ;
1012 -> 1028 ;
1029 [label="gini = 0.0\nsamples = 3\nvalue = [0, 3]"] ;
1028 -> 1029 ;
1030 [label="mfcc - 1 <= -628.1942\ngini = 0.0691\nsamples = 1311\nvalue = [1264, 47]"] ;
1028 -> 1030 ;
1031 [label="spectral_centroid - 0 <= 969.1059\ngini = 0.4688\nsamples = 8\nvalue = [3, 5]"] ;
1030 -> 1031 ;
1032 [label="gini = 0.0\nsamples = 3\nvalue = [3, 0]"] ;
1031 -> 1032 ;
1033 [label="gini = 0.0\nsamples = 5\nvalue = [0, 5]"] ;
1031 -> 1033 ;
1034 [label="mfcc - 26 <= 24.1103\ngini = 0.0624\nsamples = 1303\nvalue = [1261, 42]"] ;
1030 -> 1034 ;
1035 [label="gini = 0.0596\nsamples = 1301\nvalue = [1261, 40]"] ;
1034 -> 1035 ;
1036 [label="gini = 0.0\nsamples = 2\nvalue = [0, 2]"] ;
1034 -> 1036 ;
1037 [label="mfcc - 26 <= -1.3457\ngini = 0.498\nsamples = 32\nvalue = [15, 17]"] ;
1011 -> 1037 ;
1038 [label="gini = 0.0\nsamples = 13\nvalue = [0, 13]"] ;
1037 -> 1038 ;
1039 [label="mfcc - 4 <= -20.469\ngini = 0.3324\nsamples = 19\nvalue = [15, 4]"] ;
1037 -> 1039 ;
1040 [label="mfcc - 16 <= -26.8101\ngini = 0.1172\nsamples = 16\nvalue = [15, 1]"] ;
1039 -> 1040 ;
1041 [label="gini = 0.0\nsamples = 1\nvalue = [0, 1]"] ;
1040 -> 1041 ;
1042 [label="gini = 0.0\nsamples = 15\nvalue = [15, 0]"] ;
1040 -> 1042 ;
1043 [label="gini = 0.0\nsamples = 3\nvalue = [0, 3]"] ;
1039 -> 1043 ;
1044 [label="mfcc - 31 <= -3.303\ngini = 0.4444\nsamples = 30\nvalue = [10, 20]"] ;
1010 -> 1044 ;
1045 [label="gini = 0.0\nsamples = 9\nvalue = [9, 0]"] ;
1044 -> 1045 ;
1046 [label="mfcc - 2 <= 78.6627\ngini = 0.0907\nsamples = 21\nvalue = [1, 20]"] ;
1044 -> 1046 ;
1047 [label="gini = 0.0\nsamples = 1\nvalue = [1, 0]"] ;
1046 -> 1047 ;
1048 [label="gini = 0.0\nsamples = 20\nvalue = [0, 20]"] ;
1046 -> 1048 ;
1049 [label="mfcc - 6 <= 5.2844\ngini = 0.4631\nsamples = 195\nvalue = [124, 71]"] ;
1009 -> 1049 ;
1050 [label="mfcc - 8 <= -7.9804\ngini = 0.355\nsamples = 65\nvalue = [15, 50]"] ;
1049 -> 1050 ;
1051 [label="mfcc - 3 <= 220.3652\ngini = 0.1172\nsamples = 48\nvalue = [3, 45]"] ;
1050 -> 1051 ;
1052 [label="mfcc - 15 <= -29.6734\ngini = 0.0425\nsamples = 46\nvalue = [1, 45]"] ;
1051 -> 1052 ;
1053 [label="gini = 0.0\nsamples = 1\nvalue = [1, 0]"] ;
1052 -> 1053 ;
1054 [label="gini = 0.0\nsamples = 45\nvalue = [0, 45]"] ;
1052 -> 1054 ;
1055 [label="gini = 0.0\nsamples = 2\nvalue = [2, 0]"] ;
1051 -> 1055 ;
1056 [label="mfcc - 27 <= -5.8186\ngini = 0.4152\nsamples = 17\nvalue = [12, 5]"] ;
1050 -> 1056 ;
1057 [label="gini = 0.0\nsamples = 3\nvalue = [0, 3]"] ;
1056 -> 1057 ;
1058 [label="mfcc - 38 <= 11.8995\ngini = 0.2449\nsamples = 14\nvalue = [12, 2]"] ;
1056 -> 1058 ;
1059 [label="gini = 0.0\nsamples = 12\nvalue = [12, 0]"] ;
1058 -> 1059 ;
1060 [label="gini = 0.0\nsamples = 2\nvalue = [0, 2]"] ;
1058 -> 1060 ;
1061 [label="chroma - 23 <= 0.0857\ngini = 0.2709\nsamples = 130\nvalue = [109, 21]"] ;
1049 -> 1061 ;
1062 [label="mfcc - 5 <= -4.4126\ngini = 0.3457\nsamples = 9\nvalue = [2, 7]"] ;
1061 -> 1062 ;
1063 [label="gini = 0.0\nsamples = 7\nvalue = [0, 7]"] ;
1062 -> 1063 ;
1064 [label="gini = 0.0\nsamples = 2\nvalue = [2, 0]"] ;
1062 -> 1064 ;
1065 [label="mfcc - 0 <= -179.4932\ngini = 0.2046\nsamples = 121\nvalue = [107, 14]"] ;
1061 -> 1065 ;
1066 [label="mfcc - 26 <= 26.1885\ngini = 0.1576\nsamples = 116\nvalue = [106, 10]"] ;
1065 -> 1066 ;
1067 [label="mfcc - 1 <= -633.9681\ngini = 0.1305\nsamples = 114\nvalue = [106, 8]"] ;
1066 -> 1067 ;
1068 [label="gini = 0.0\nsamples = 2\nvalue = [0, 2]"] ;
1067 -> 1068 ;
1069 [label="mfcc - 27 <= -17.1516\ngini = 0.1014\nsamples = 112\nvalue = [106, 6]"] ;
1067 -> 1069 ;
1070 [label="gini = 0.4444\nsamples = 3\nvalue = [1, 2]"] ;
1069 -> 1070 ;
1071 [label="gini = 0.0707\nsamples = 109\nvalue = [105, 4]"] ;
1069 -> 1071 ;
1072 [label="gini = 0.0\nsamples = 2\nvalue = [0, 2]"] ;
1066 -> 1072 ;
1073 [label="mfcc - 37 <= -0.1064\ngini = 0.32\nsamples = 5\nvalue = [1, 4]"] ;
1065 -> 1073 ;
1074 [label="gini = 0.0\nsamples = 1\nvalue = [1, 0]"] ;
1073 -> 1074 ;
1075 [label="gini = 0.0\nsamples = 4\nvalue = [0, 4]"] ;
1073 -> 1075 ;
1076 [label="mfcc - 15 <= -31.397\ngini = 0.0567\nsamples = 4756\nvalue = [4617, 139]"] ;
1008 -> 1076 ;
1077 [label="gini = 0.0\nsamples = 5\nvalue = [0, 5]"] ;
1076 -> 1077 ;
1078 [label="mfcc - 32 <= 25.5467\ngini = 0.0548\nsamples = 4751\nvalue = [4617, 134]"] ;
1076 -> 1078 ;
1079 [label="mfcc - 14 <= -31.5627\ngini = 0.0529\nsamples = 4745\nvalue = [4616, 129]"] ;
1078 -> 1079 ;
1080 [label="mfcc - 18 <= -11.0322\ngini = 0.375\nsamples = 4\nvalue = [1, 3]"] ;
1079 -> 1080 ;
1081 [label="gini = 0.0\nsamples = 1\nvalue = [1, 0]"] ;
1080 -> 1081 ;
1082 [label="gini = 0.0\nsamples = 3\nvalue = [0, 3]"] ;
1080 -> 1082 ;
1083 [label="mfcc - 30 <= 15.0103\ngini = 0.0517\nsamples = 4741\nvalue = [4615, 126]"] ;
1079 -> 1083 ;
1084 [label="mfcc - 27 <= 23.9316\ngini = 0.0447\nsamples = 4594\nvalue = [4489, 105]"] ;
1083 -> 1084 ;
1085 [label="mfcc - 28 <= -25.4061\ngini = 0.0427\nsamples = 4579\nvalue = [4479, 100]"] ;
1084 -> 1085 ;
1086 [label="mfcc - 5 <= -13.5104\ngini = 0.3578\nsamples = 30\nvalue = [23, 7]"] ;
1085 -> 1086 ;
1087 [label="gini = 0.2778\nsamples = 6\nvalue = [1, 5]"] ;
1086 -> 1087 ;
1088 [label="gini = 0.1528\nsamples = 24\nvalue = [22, 2]"] ;
1086 -> 1088 ;
1089 [label="pre_attack - 1 <= 0.0553\ngini = 0.0401\nsamples = 4549\nvalue = [4456, 93]"] ;
1085 -> 1089 ;
1090 [label="gini = 0.3878\nsamples = 19\nvalue = [14, 5]"] ;
1089 -> 1090 ;
1091 [label="gini = 0.0381\nsamples = 4530\nvalue = [4442, 88]"] ;
1089 -> 1091 ;
1092 [label="mfcc - 6 <= 26.5172\ngini = 0.4444\nsamples = 15\nvalue = [10, 5]"] ;
1084 -> 1092 ;
1093 [label="gini = 0.0\nsamples = 5\nvalue = [0, 5]"] ;
1092 -> 1093 ;
1094 [label="gini = 0.0\nsamples = 10\nvalue = [10, 0]"] ;
1092 -> 1094 ;
1095 [label="chroma - 15 <= 0.093\ngini = 0.2449\nsamples = 147\nvalue = [126, 21]"] ;
1083 -> 1095 ;
1096 [label="chroma - 2 <= 0.8878\ngini = 0.2778\nsamples = 6\nvalue = [1, 5]"] ;
1095 -> 1096 ;
1097 [label="gini = 0.0\nsamples = 5\nvalue = [0, 5]"] ;
1096 -> 1097 ;
1098 [label="gini = 0.0\nsamples = 1\nvalue = [1, 0]"] ;
1096 -> 1098 ;
1099 [label="mfcc - 0 <= -629.5208\ngini = 0.2012\nsamples = 141\nvalue = [125, 16]"] ;
1095 -> 1099 ;
1100 [label="mfcc - 31 <= 6.7455\ngini = 0.48\nsamples = 10\nvalue = [4, 6]"] ;
1099 -> 1100 ;
1101 [label="gini = 0.0\nsamples = 4\nvalue = [4, 0]"] ;
1100 -> 1101 ;
1102 [label="gini = 0.0\nsamples = 6\nvalue = [0, 6]"] ;
1100 -> 1102 ;
1103 [label="mfcc - 5 <= -9.209\ngini = 0.141\nsamples = 131\nvalue = [121, 10]"] ;
1099 -> 1103 ;
1104 [label="gini = 0.4352\nsamples = 25\nvalue = [17, 8]"] ;
1103 -> 1104 ;
1105 [label="gini = 0.037\nsamples = 106\nvalue = [104, 2]"] ;
1103 -> 1105 ;
1106 [label="mfcc - 21 <= 16.6663\ngini = 0.2778\nsamples = 6\nvalue = [1, 5]"] ;
1078 -> 1106 ;
1107 [label="gini = 0.0\nsamples = 5\nvalue = [0, 5]"] ;
1106 -> 1107 ;
1108 [label="gini = 0.0\nsamples = 1\nvalue = [1, 0]"] ;
1106 -> 1108 ;
1109 [label="mfcc - 6 <= -2.8318\ngini = 0.4807\nsamples = 112\nvalue = [67, 45]"] ;
1007 -> 1109 ;
1110 [label="mfcc - 30 <= 3.7179\ngini = 0.2975\nsamples = 22\nvalue = [4, 18]"] ;
1109 -> 1110 ;
1111 [label="gini = 0.0\nsamples = 4\nvalue = [4, 0]"] ;
1110 -> 1111 ;
1112 [label="gini = 0.0\nsamples = 18\nvalue = [0, 18]"] ;
1110 -> 1112 ;
1113 [label="mfcc - 39 <= 13.9391\ngini = 0.42\nsamples = 90\nvalue = [63, 27]"] ;
1109 -> 1113 ;
1114 [label="mfcc - 20 <= 17.7021\ngini = 0.356\nsamples = 82\nvalue = [63, 19]"] ;
1113 -> 1114 ;
1115 [label="mfcc - 4 <= -18.0263\ngini = 0.3107\nsamples = 78\nvalue = [63, 15]"] ;
1114 -> 1115 ;
1116 [label="mfcc - 17 <= 1.964\ngini = 0.4989\nsamples = 21\nvalue = [11, 10]"] ;
1115 -> 1116 ;
1117 [label="mfcc - 29 <= 17.6831\ngini = 0.355\nsamples = 13\nvalue = [10, 3]"] ;
1116 -> 1117 ;
1118 [label="gini = 0.0\nsamples = 10\nvalue = [10, 0]"] ;
1117 -> 1118 ;
1119 [label="gini = 0.0\nsamples = 3\nvalue = [0, 3]"] ;
1117 -> 1119 ;
1120 [label="mfcc - 2 <= 191.1652\ngini = 0.2188\nsamples = 8\nvalue = [1, 7]"] ;
1116 -> 1120 ;
1121 [label="gini = 0.0\nsamples = 7\nvalue = [0, 7]"] ;
1120 -> 1121 ;
1122 [label="gini = 0.0\nsamples = 1\nvalue = [1, 0]"] ;
1120 -> 1122 ;
1123 [label="mfcc - 15 <= 30.8169\ngini = 0.16\nsamples = 57\nvalue = [52, 5]"] ;
1115 -> 1123 ;
1124 [label="mfcc - 31 <= 31.7723\ngini = 0.0726\nsamples = 53\nvalue = [51, 2]"] ;
1123 -> 1124 ;
1125 [label="mfcc - 35 <= 18.5184\ngini = 0.0377\nsamples = 52\nvalue = [51, 1]"] ;
1124 -> 1125 ;
1126 [label="gini = 0.0\nsamples = 51\nvalue = [51, 0]"] ;
1125 -> 1126 ;
1127 [label="gini = 0.0\nsamples = 1\nvalue = [0, 1]"] ;
1125 -> 1127 ;
1128 [label="gini = 0.0\nsamples = 1\nvalue = [0, 1]"] ;
1124 -> 1128 ;
1129 [label="chroma - 15 <= 0.918\ngini = 0.375\nsamples = 4\nvalue = [1, 3]"] ;
1123 -> 1129 ;
1130 [label="gini = 0.0\nsamples = 1\nvalue = [1, 0]"] ;
1129 -> 1130 ;
1131 [label="gini = 0.0\nsamples = 3\nvalue = [0, 3]"] ;
1129 -> 1131 ;
1132 [label="gini = 0.0\nsamples = 4\nvalue = [0, 4]"] ;
1114 -> 1132 ;
1133 [label="gini = 0.0\nsamples = 8\nvalue = [0, 8]"] ;
1113 -> 1133 ;
1134 [label="chroma - 22 <= 0.9027\ngini = 0.2677\nsamples = 201\nvalue = [32, 169]"] ;
732 -> 1134 ;
1135 [label="mfcc - 1 <= -669.7902\ngini = 0.3926\nsamples = 41\nvalue = [30, 11]"] ;
1134 -> 1135 ;
1136 [label="gini = 0.0\nsamples = 6\nvalue = [0, 6]"] ;
1135 -> 1136 ;
1137 [label="mfcc - 3 <= 76.1094\ngini = 0.2449\nsamples = 35\nvalue = [30, 5]"] ;
1135 -> 1137 ;
1138 [label="gini = 0.0\nsamples = 3\nvalue = [0, 3]"] ;
1137 -> 1138 ;
1139 [label="mfcc - 23 <= -1.9212\ngini = 0.1172\nsamples = 32\nvalue = [30, 2]"] ;
1137 -> 1139 ;
1140 [label="gini = 0.0\nsamples = 2\nvalue = [0, 2]"] ;
1139 -> 1140 ;
1141 [label="gini = 0.0\nsamples = 30\nvalue = [30, 0]"] ;
1139 -> 1141 ;
1142 [label="chroma - 4 <= 0.635\ngini = 0.0247\nsamples = 160\nvalue = [2, 158]"] ;
1134 -> 1142 ;
1143 [label="pre_attack - 0 <= 1.8452\ngini = 0.4444\nsamples = 3\nvalue = [2, 1]"] ;
1142 -> 1143 ;
1144 [label="gini = 0.0\nsamples = 2\nvalue = [2, 0]"] ;
1143 -> 1144 ;
1145 [label="gini = 0.0\nsamples = 1\nvalue = [0, 1]"] ;
1143 -> 1145 ;
1146 [label="gini = 0.0\nsamples = 157\nvalue = [0, 157]"] ;
1142 -> 1146 ;
}