digraph Tree {
node [shape=box] ;
0 [label="mfcc - 2 <= -39.8139\ngini = 0.5\nsamples = 23618\nvalue = [11808, 11810]"] ;
1 [label="mfcc - 3 <= 6.9483\ngini = 0.4107\nsamples = 14684\nvalue = [4240, 10444]"] ;
0 -> 1 [labeldistance=2.5, labelangle=45, headlabel="True"] ;
2 [label="pre_attack - 0 <= 0.6834\ngini = 0.1944\nsamples = 9658\nvalue = [1054, 8604]"] ;
1 -> 2 ;
3 [label="mfcc - 3 <= -8.1878\ngini = 0.4576\nsamples = 1597\nvalue = [566, 1031]"] ;
2 -> 3 ;
4 [label="chroma_avg - 0 <= 0.4359\ngini = 0.2912\nsamples = 978\nvalue = [173, 805]"] ;
3 -> 4 ;
5 [label="gini = 0.1963\nsamples = 816\nvalue = [90, 726]"] ;
4 -> 5 ;
6 [label="gini = 0.4997\nsamples = 162\nvalue = [83, 79]"] ;
4 -> 6 ;
7 [label="chroma - 4 <= 0.0801\ngini = 0.4636\nsamples = 619\nvalue = [393, 226]"] ;
3 -> 7 ;
8 [label="gini = 0.377\nsamples = 123\nvalue = [31, 92]"] ;
7 -> 8 ;
9 [label="gini = 0.3943\nsamples = 496\nvalue = [362, 134]"] ;
7 -> 9 ;
10 [label="mfcc - 5 <= 40.251\ngini = 0.1137\nsamples = 8061\nvalue = [488, 7573]"] ;
2 -> 10 ;
11 [label="spectral_centroid - 0 <= 5443.9424\ngini = 0.0856\nsamples = 7858\nvalue = [352, 7506]"] ;
10 -> 11 ;
12 [label="gini = 0.082\nsamples = 7842\nvalue = [336, 7506]"] ;
11 -> 12 ;
13 [label="gini = 0.0\nsamples = 16\nvalue = [16, 0]"] ;
11 -> 13 ;
14 [label="mfcc - 2 <= -61.4515\ngini = 0.4422\nsamples = 203\nvalue = [136, 67]"] ;
10 -> 14 ;
15 [label="gini = 0.1547\nsamples = 71\nvalue = [6, 65]"] ;
14 -> 15 ;
16 [label="gini = 0.0298\nsamples = 132\nvalue = [130, 2]"] ;
14 -> 16 ;
17 [label="pre_attack - 0 <= 0.7731\ngini = 0.4641\nsamples = 5026\nvalue = [3186, 1840]"] ;
1 -> 17 ;
18 [label="chroma - 4 <= 0.0152\ngini = 0.2173\nsamples = 2387\nvalue = [2091, 296]"] ;
17 -> 18 ;
19 [label="mfcc - 9 <= -1.9434\ngini = 0.4887\nsamples = 153\nvalue = [65, 88]"] ;
18 -> 19 ;
20 [label="gini = 0.1913\nsamples = 56\nvalue = [50, 6]"] ;
19 -> 20 ;
21 [label="gini = 0.2615\nsamples = 97\nvalue = [15, 82]"] ;
19 -> 21 ;
22 [label="mfcc - 4 <= -47.3789\ngini = 0.1689\nsamples = 2234\nvalue = [2026, 208]"] ;
18 -> 22 ;
23 [label="gini = 0.4991\nsamples = 69\nvalue = [36, 33]"] ;
22 -> 23 ;
24 [label="gini = 0.1486\nsamples = 2165\nvalue = [1990, 175]"] ;
22 -> 24 ;
25 [label="spectral_centroid - 0 <= 4553.4014\ngini = 0.4855\nsamples = 2639\nvalue = [1095, 1544]"] ;
17 -> 25 ;
26 [label="chroma_avg - 0 <= 0.3671\ngini = 0.4433\nsamples = 2240\nvalue = [743, 1497]"] ;
25 -> 26 ;
27 [label="gini = 0.3398\nsamples = 1535\nvalue = [333, 1202]"] ;
26 -> 27 ;
28 [label="gini = 0.4867\nsamples = 705\nvalue = [410, 295]"] ;
26 -> 28 ;
29 [label="mfcc - 2 <= -85.2935\ngini = 0.2078\nsamples = 399\nvalue = [352, 47]"] ;
25 -> 29 ;
30 [label="gini = 0.4999\nsamples = 63\nvalue = [32, 31]"] ;
29 -> 30 ;
31 [label="gini = 0.0907\nsamples = 336\nvalue = [320, 16]"] ;
29 -> 31 ;
32 [label="chroma_avg - 0 <= 0.913\ngini = 0.259\nsamples = 8934\nvalue = [7568, 1366]"] ;
0 -> 32 [labeldistance=2.5, labelangle=-45, headlabel="False"] ;
33 [label="chroma - 7 <= 0.0924\ngini = 0.2369\nsamples = 8734\nvalue = [7535, 1199]"] ;
32 -> 33 ;
34 [label="mfcc - 4 <= -20.8295\ngini = 0.4858\nsamples = 1073\nvalue = [627, 446]"] ;
33 -> 34 ;
35 [label="spectral_centroid - 0 <= 1449.718\ngini = 0.4907\nsamples = 639\nvalue = [276, 363]"] ;
34 -> 35 ;
36 [label="gini = 0.3474\nsamples = 219\nvalue = [170, 49]"] ;
35 -> 36 ;
37 [label="gini = 0.3774\nsamples = 420\nvalue = [106, 314]"] ;
35 -> 37 ;
38 [label="pre_attack - 0 <= 4.3085\ngini = 0.3093\nsamples = 434\nvalue = [351, 83]"] ;
34 -> 38 ;
39 [label="gini = 0.2495\nsamples = 397\nvalue = [339, 58]"] ;
38 -> 39 ;
40 [label="gini = 0.4383\nsamples = 37\nvalue = [12, 25]"] ;
38 -> 40 ;
41 [label="mfcc - 2 <= -22.967\ngini = 0.1773\nsamples = 7661\nvalue = [6908, 753]"] ;
33 -> 41 ;
42 [label="mfcc - 3 <= 12.8252\ngini = 0.3455\nsamples = 1635\nvalue = [1272, 363]"] ;
41 -> 42 ;
43 [label="gini = 0.4813\nsamples = 687\nvalue = [410, 277]"] ;
42 -> 43 ;
44 [label="gini = 0.165\nsamples = 948\nvalue = [862, 86]"] ;
42 -> 44 ;
45 [label="mfcc - 0 <= -681.7031\ngini = 0.1211\nsamples = 6026\nvalue = [5636, 390]"] ;
41 -> 45 ;
46 [label="gini = 0.4998\nsamples = 145\nvalue = [74, 71]"] ;
45 -> 46 ;
47 [label="gini = 0.1026\nsamples = 5881\nvalue = [5562, 319]"] ;
45 -> 47 ;
48 [label="chroma - 9 <= 0.9795\ngini = 0.2755\nsamples = 200\nvalue = [33, 167]"] ;
32 -> 48 ;
49 [label="mfcc - 0 <= -660.324\ngini = 0.2854\nsamples = 29\nvalue = [24, 5]"] ;
48 -> 49 ;
50 [label="mfcc - 8 <= 16.8867\ngini = 0.32\nsamples = 5\nvalue = [1, 4]"] ;
49 -> 50 ;
51 [label="gini = 0.0\nsamples = 4\nvalue = [0, 4]"] ;
50 -> 51 ;
52 [label="gini = 0.0\nsamples = 1\nvalue = [1, 0]"] ;
50 -> 52 ;
53 [label="chroma_avg - 0 <= 0.9144\ngini = 0.0799\nsamples = 24\nvalue = [23, 1]"] ;
49 -> 53 ;
54 [label="gini = 0.0\nsamples = 1\nvalue = [0, 1]"] ;
53 -> 54 ;
55 [label="gini = 0.0\nsamples = 23\nvalue = [23, 0]"] ;
53 -> 55 ;
56 [label="mfcc - 3 <= 49.1451\ngini = 0.0997\nsamples = 171\nvalue = [9, 162]"] ;
48 -> 56 ;
57 [label="mfcc - 1 <= 136.1873\ngini = 0.0242\nsamples = 163\nvalue = [2, 161]"] ;
56 -> 57 ;
58 [label="gini = 0.0123\nsamples = 162\nvalue = [1, 161]"] ;
57 -> 58 ;
59 [label="gini = 0.0\nsamples = 1\nvalue = [1, 0]"] ;
57 -> 59 ;
60 [label="mfcc - 18 <= -2.8265\ngini = 0.2188\nsamples = 8\nvalue = [7, 1]"] ;
56 -> 60 ;
61 [label="gini = 0.0\nsamples = 1\nvalue = [0, 1]"] ;
60 -> 61 ;
62 [label="gini = 0.0\nsamples = 7\nvalue = [7, 0]"] ;
60 -> 62 ;
}